{"learner":{"attributes":{"scikit_learn":"{\"_estimator_type\": \"regressor\"}"},"feature_names":["id","points","rebounds","assists","threes","injury_factor","game_id"],"feature_types":["int","int","int","int","int","int","int"],"gradient_booster":{"model":{"cats":{"enc":[],"feature_segments":[],"sorted_idx":[]},"gbtree_model_param":{"num_parallel_tree":"1","num_trees":"200"},"iteration_indptr":[0,1,2,3,4,5,6,7,8,9,10,11,12,13,14,15,16,17,18,19,20,21,22,23,24,25,26,27,28,29,30,31,32,33,34,35,36,37,38,39,40,41,42,43,44,45,46,47,48,49,50,51,52,53,54,55,56,57,58,59,60,61,62,63,64,65,66,67,68,69,70,71,72,73,74,75,76,77,78,79,80,81,82,83,84,85,86,87,88,89,90,91,92,93,94,95,96,97,98,99,100,101,102,103,104,105,106,107,108,109,110,111,112,113,114,115,116,117,118,119,120,121,122,123,124,125,126,127,128,129,130,131,132,133,134,135,136,137,138,139,140,141,142,143,144,145,146,147,148,149,150,151,152,153,154,155,156,157,158,159,160,161,162,163,164,165,166,167,168,169,170,171,172,173,174,175,176,177,178,179,180,181,182,183,184,185,186,187,188,189,190,191,192,193,194,195,196,197,198,199,200],"tree_info":[0,0,0,0,0,0,0,0,0,0,0,0,0,0,0,0,0,0,0,0,0,0,0,0,0,0,0,0,0,0,0,0,0,0,0,0,0,0,0,0,0,0,0,0,0,0,0,0,0,0,0,0,0,0,0,0,0,0,0,0,0,0,0,0,0,0,0,0,0,0,0,0,0,0,0,0,0,0,0,0,0,0,0,0,0,0,0,0,0,0,0,0,0,0,0,0,0,0,0,0,0,0,0,0,0,0,0,0,0,0,0,0,0,0,0,0,0,0,0,0,0,0,0,0,0,0,0,0,0,0,0,0,0,0,0,0,0,0,0,0,0,0,0,0,0,0,0,0,0,0,0,0,0,0,0,0,0,0,0,0,0,0,0,0,0,0,0,0,0,0,0,0,0,0,0,0,0,0,0,0,0,0,0,0,0,0,0,0,0,0,0,0,0,0,0,0,0,0,0,0],"trees":[{"base_weights":[5.3562667E-2,-2.6500356E0,3.3644102E0,-4.793579E0,-1.4454509E0,2.5875502E0,5.743214E-1,-5.12932E-1,-3.9248173E0,-2.256638E0,-6.1390513E-1,9.85579E-1,3.111878E0,-1.9267194E-1,-4.1016683E-1,-2.749263E-1,-1.7296514E-1,-1.7600311E-1,-1.612816E-2,-1.3781749E-1,1.1705997E-1,2.5531277E-1,3.508205E-1],"categories":[],"categories_nodes":[],"categories_segments":[],"categories_sizes":[],"default_left":[0,0,0,0,0,0,0,0,0,0,0,0,0,0,0,0,0,0,0,0,0,0,0],"id":0,"left_children":[1,3,5,7,9,11,-1,-1,13,15,17,19,21,-1,-1,-1,-1,-1,-1,-1,-1,-1,-1],"loss_changes":[3.5446404E3,5.559646E2,3.1408252E2,2.6192627E0,9.37247E1,1.111673E2,0E0,0E0,1.28479E0,1.3676819E1,3.6548347E1,1.6920311E1,1.3630676E1,0E0,0E0,0E0,0E0,0E0,0E0,0E0,0E0,0E0,0E0],"parents":[2147483647,0,0,1,1,2,2,3,3,4,4,5,5,8,8,9,9,10,10,11,11,12,12],"right_children":[2,4,6,8,10,12,-1,-1,14,16,18,20,22,-1,-1,-1,-1,-1,-1,-1,-1,-1,-1],"split_conditions":[6E0,2E0,1.1E1,3.28E2,4E0,7E0,5.743214E-1,-5.12932E-1,3.48E2,3E0,3E0,1E0,9E0,-1.9267194E-1,-4.1016683E-1,-2.749263E-1,-1.7296514E-1,-1.7600311E-1,-1.612816E-2,-1.3781749E-1,1.1705997E-1,2.5531277E-1,3.508205E-1],"split_indices":[3,3,3,0,3,3,0,0,0,3,2,2,3,0,0,0,0,0,0,0,0,0,0],"split_type":[0,0,0,0,0,0,0,0,0,0,0,0,0,0,0,0,0,0,0,0,0,0,0],"sum_hessian":[3.94E2,2.17E2,1.77E2,7.7E1,1.4E2,1.35E2,4.2E1,5.2E1,2.5E1,7E1,7E1,3.4E1,1.01E2,3E0,2.2E1,3.4E1,3.6E1,1.9E1,5.1E1,2E0,3.2E1,4.5E1,5.6E1],"tree_param":{"num_deleted":"0","num_feature":"7","num_nodes":"23","size_leaf_vector":"1"}},{"base_weights":[-1.232895E-2,-8.19018E-1,1.367436E-1,-3.0527165E0,-5.738896E-2,2.3922904E0,3.285998E-2,5.691002E-1,-3.610769E0,-1.0890033E0,1.111279E0,1.0353348E0,3.4502094E0,1.5284543E-1,-1.3059726E0,2.0531133E-1,-1.1994629E-1,-1.792881E-1,-3.9435676E-1,-3.7217773E-2,-3.4163925E-1,1.9954397E-1,-2.376738E-2,1.479442E-1,-1.9799089E-2,4.4127694E-1,3.7502017E-2,2.5560283E-3,2.760365E-1,-1.6402319E-1,1.9148456E-1],"categories":[],"categories_nodes":[],"categories_segments":[],"categories_sizes":[],"default_left":[0,0,0,0,0,0,0,0,0,0,0,0,0,0,0,0,0,0,0,0,0,0,0,0,0,0,0,0,0,0,0],"id":1,"left_children":[1,3,5,7,9,11,13,15,17,19,21,23,25,27,29,-1,-1,-1,-1,-1,-1,-1,-1,-1,-1,-1,-1,-1,-1,-1,-1],"loss_changes":[4.8574837E1,1.0700354E2,7.9822586E1,3.4393494E1,5.9079693E1,1.7961113E1,5.272903E1,1.0336345E1,1.3995056E0,4.2105133E1,2.7906155E1,4.6747456E0,2.2025558E1,9.98309E1,3.220867E1,0E0,0E0,0E0,0E0,0E0,0E0,0E0,0E0,0E0,0E0,0E0,0E0,0E0,0E0,0E0,0E0],"parents":[2147483647,0,0,1,1,2,2,3,3,4,4,5,5,6,6,7,7,8,8,9,9,10,10,11,11,12,12,13,13,14,14],"right_children":[2,4,6,8,10,12,14,16,18,20,22,24,26,28,30,-1,-1,-1,-1,-1,-1,-1,-1,-1,-1,-1,-1,-1,-1,-1,-1],"split_conditions":[8.1E1,3E0,9.9E1,1.4E1,4E0,2E1,4.72E2,6E1,1.9E1,3E0,6E0,9.3E1,3.7E1,4.55E2,3.8E1,2.0531133E-1,-1.1994629E-1,-1.792881E-1,-3.9435676E-1,-3.7217773E-2,-3.4163925E-1,1.9954397E-1,-2.376738E-2,1.479442E-1,-1.9799089E-2,4.4127694E-1,3.7502017E-2,2.5560283E-3,2.760365E-1,-1.6402319E-1,1.9148456E-1],"split_indices":[0,2,0,1,4,1,0,0,0,4,4,0,1,0,1,0,0,0,0,0,0,0,0,0,0,0,0,0,0,0,0],"split_type":[0,0,0,0,0,0,0,0,0,0,0,0,0,0,0,0,0,0,0,0,0,0,0,0,0,0,0,0,0,0,0],"sum_hessian":[4.02E2,6.2E1,3.4E2,1.5E1,4.7E1,1.4E1,3.26E2,2E0,1.3E1,2.5E1,2.2E1,7E0,7E0,3E2,2.6E1,1E0,1E0,3E0,1E1,2E1,5E0,1.3E1,9E0,5E0,2E0,5E0,2E0,2.87E2,1.3E1,2.4E1,2E0],"tree_param":{"num_deleted":"0","num_feature":"7","num_nodes":"31","size_leaf_vector":"1"}},{"base_weights":[-1.1277946E-2,-6.468001E-1,2.0483719E-1,8.995941E-3,-1.3027726E0,-8.9392915E-2,1.0290681E0,2.475062E0,-2.4807335E-1,-2.0881925E0,9.221367E-1,-1.8085675E0,5.2914664E-2,-2.3510285E-1,1.5524795E0,3.990072E-1,1.0987915E-1,-9.794636E-2,1.025325E-1,-1.3627066E-2,-2.6041627E-1,-1.6519868E-1,1.488823E-1,1.6905634E-1,-2.3878227E-1,4.770435E-2,-4.193604E-2,2.2722101E-1,-8.501759E-2,3.464539E-1,7.684446E-2],"categories":[],"categories_nodes":[],"categories_segments":[],"categories_sizes":[],"default_left":[0,0,0,0,0,0,0,0,0,0,0,0,0,0,0,0,0,0,0,0,0,0,0,0,0,0,0,0,0,0,0],"id":2,"left_children":[1,3,5,7,9,11,13,15,17,19,21,23,25,27,29,-1,-1,-1,-1,-1,-1,-1,-1,-1,-1,-1,-1,-1,-1,-1,-1],"loss_changes":[5.520822E1,4.3890507E1,7.284607E1,3.357939E1,9.104749E1,5.440835E1,5.263781E1,6.0410595E0,4.5709118E1,3.7916214E1,2.2881598E1,3.8493877E1,4.146298E1,3.894411E1,8.128848E1,0E0,0E0,0E0,0E0,0E0,0E0,0E0,0E0,0E0,0E0,0E0,0E0,0E0,0E0,0E0,0E0],"parents":[2147483647,0,0,1,1,2,2,3,3,4,4,5,5,6,6,7,7,8,8,9,9,10,10,11,11,12,12,13,13,14,14],"right_children":[2,4,6,8,10,12,14,16,18,20,22,24,26,28,30,-1,-1,-1,-1,-1,-1,-1,-1,-1,-1,-1,-1,-1,-1,-1,-1],"split_conditions":[1.28E2,1E0,6E0,7E0,3.3E1,1E0,1.2E1,8E0,8.5E1,3.8E1,2E0,1.63E2,9E0,1.63E2,2.2E1,3.990072E-1,1.0987915E-1,-9.794636E-2,1.025325E-1,-1.3627066E-2,-2.6041627E-1,-1.6519868E-1,1.488823E-1,1.6905634E-1,-2.3878227E-1,4.770435E-2,-4.193604E-2,2.2722101E-1,-8.501759E-2,3.464539E-1,7.684446E-2],"split_indices":[0,5,4,0,1,2,1,2,0,0,4,0,2,0,1,0,0,0,0,0,0,0,0,0,0,0,0,0,0,0,0],"split_type":[0,0,0,0,0,0,0,0,0,0,0,0,0,0,0,0,0,0,0,0,0,0,0,0,0,0,0,0,0,0,0],"sum_hessian":[4E2,1.01E2,2.99E2,5.1E1,5E1,2.21E2,7.8E1,4E0,4.7E1,3.7E1,1.3E1,1.6E1,2.05E2,2.3E1,5.5E1,1E0,3E0,3E1,1.7E1,8E0,2.9E1,2E0,1.1E1,2E0,1.4E1,1.08E2,9.7E1,4E0,1.9E1,1.5E1,4E1],"tree_param":{"num_deleted":"0","num_feature":"7","num_nodes":"31","size_leaf_vector":"1"}},{"base_weights":[3.5193271E-3,-2.3864298E0,2.8714392E0,-4.2233825E0,-1.301206E0,1.550606E0,3.9786413E0,-4.3537464E0,-5.928462E-1,-1.6931728E0,-1.1093679E-1,8.012989E-1,2.1553226E0,3.3187914E0,4.8854465E0,-4.6020457E-1,-2.987536E-1,1.0018706E-2,-8.57253E-2,-2.2674015E-1,-1.3523923E-1,-9.846868E-2,3.129007E-2,2.0483012E-1,5.6463283E-2,2.4389867E-1,1.3124722E-1,3.494625E-2,3.362456E-1,5.12158E-1,2.208199E-1],"categories":[],"categories_nodes":[],"categories_segments":[],"categories_sizes":[],"default_left":[0,0,0,0,0,0,0,0,0,0,0,0,0,0,0,0,0,0,0,0,0,0,0,0,0,0,0,0,0,0,0],"id":3,"left_children":[1,3,5,7,9,11,13,15,17,19,21,23,25,27,29,-1,-1,-1,-1,-1,-1,-1,-1,-1,-1,-1,-1,-1,-1,-1,-1],"loss_changes":[2.7896506E3,4.3706262E2,2.6438013E2,3.622876E1,6.5595184E1,3.724112E1,4.3621582E1,1.3050293E1,8.1885636E-1,1.767627E1,1.3639918E1,1.0648388E1,8.03598E0,6.7338867E0,1.3978027E1,0E0,0E0,0E0,0E0,0E0,0E0,0E0,0E0,0E0,0E0,0E0,0E0,0E0,0E0,0E0,0E0],"parents":[2147483647,0,0,1,1,2,2,3,3,4,4,5,5,6,6,7,7,8,8,9,9,10,10,11,11,12,12,13,13,14,14],"right_children":[2,4,6,8,10,12,14,16,18,20,22,24,26,28,30,-1,-1,-1,-1,-1,-1,-1,-1,-1,-1,-1,-1,-1,-1,-1,-1],"split_conditions":[6E0,2E0,9E0,4.95E2,5E0,7E0,1.1E1,4.04E2,2E0,3E0,3E0,3.5E1,2.97E2,1.07E2,7E0,-4.6020457E-1,-2.987536E-1,1.0018706E-2,-8.57253E-2,-2.2674015E-1,-1.3523923E-1,-9.846868E-2,3.129007E-2,2.0483012E-1,5.6463283E-2,2.4389867E-1,1.3124722E-1,3.494625E-2,3.362456E-1,5.12158E-1,2.208199E-1],"split_indices":[3,3,3,6,3,3,3,0,4,3,4,0,0,6,4,0,0,0,0,0,0,0,0,0,0,0,0,0,0,0,0],"split_type":[0,0,0,0,0,0,0,0,0,0,0,0,0,0,0,0,0,0,0,0,0,0,0,0,0,0,0,0,0,0,0],"sum_hessian":[4.05E2,2.21E2,1.84E2,8.1E1,1.4E2,8.5E1,9.9E1,7.8E1,3E0,1.05E2,3.5E1,3.9E1,4.6E1,6E1,3.9E1,6.4E1,1.4E1,1E0,2E0,3.7E1,6.8E1,1.1E1,2.4E1,5E0,3.4E1,3.3E1,1.3E1,1E0,5.9E1,3.5E1,4E0],"tree_param":{"num_deleted":"0","num_feature":"7","num_nodes":"31","size_leaf_vector":"1"}},{"base_weights":[6.137561E-2,-2.0919738E0,2.6330907E0,-3.799851E0,-1.1308333E0,1.68865E0,3.9631186E0,-3.9641576E0,-6.4100313E-1,-1.7153141E0,-5.631176E-1,6.318122E-1,2.0921998E0,3.0874205E0,4.669837E0,-3.593658E-1,-4.8280165E-1,9.517766E-3,-8.488428E-2,-1.9484358E-1,-1.0115569E-1,-7.827794E-2,4.0282246E-2,5.2038347E-3,1.2467684E-1,2.270733E-1,1.03859566E-1,3.3820528E-1,1.3836513E-1,5.401642E-1,3.5159737E-1],"categories":[],"categories_nodes":[],"categories_segments":[],"categories_sizes":[],"default_left":[0,0,0,0,0,0,0,0,0,0,0,0,0,0,0,0,0,0,0,0,0,0,0,0,0,0,0,0,0,0,0],"id":4,"left_children":[1,3,5,7,9,11,13,15,17,19,21,23,25,27,29,-1,-1,-1,-1,-1,-1,-1,-1,-1,-1,-1,-1,-1,-1,-1,-1],"loss_changes":[2.187402E3,3.4862756E2,2.194115E2,3.7423584E1,4.515689E1,4.4312164E1,3.1378906E1,6.014038E0,8.458288E-1,9.185211E0,1.5592287E1,1.0987721E1,1.212561E1,1.3391907E1,1.3939636E1,0E0,0E0,0E0,0E0,0E0,0E0,0E0,0E0,0E0,0E0,0E0,0E0,0E0,0E0,0E0,0E0],"parents":[2147483647,0,0,1,1,2,2,3,3,4,4,5,5,6,6,7,7,8,8,9,9,10,10,11,11,12,12,13,13,14,14],"right_children":[2,4,6,8,10,12,14,16,18,20,22,24,26,28,30,-1,-1,-1,-1,-1,-1,-1,-1,-1,-1,-1,-1,-1,-1,-1,-1],"split_conditions":[6E0,2E0,1E1,4.73E2,4E0,7E0,1.1E1,4.05E2,1.79E2,3.54E2,4.35E2,2.42E2,4.18E2,4.03E2,2.45E2,-3.593658E-1,-4.8280165E-1,9.517766E-3,-8.488428E-2,-1.9484358E-1,-1.0115569E-1,-7.827794E-2,4.0282246E-2,5.2038347E-3,1.2467684E-1,2.270733E-1,1.03859566E-1,3.3820528E-1,1.3836513E-1,5.401642E-1,3.5159737E-1],"split_indices":[3,3,3,6,3,3,3,6,0,0,0,6,0,6,6,0,0,0,0,0,0,0,0,0,0,0,0,0,0,0,0],"split_type":[0,0,0,0,0,0,0,0,0,0,0,0,0,0,0,0,0,0,0,0,0,0,0,0,0,0,0,0,0,0,0],"sum_hessian":[3.93E2,2.14E2,1.79E2,7.6E1,1.38E2,1.06E2,7.3E1,7.2E1,4E0,6.7E1,7.1E1,3E1,7.6E1,3.5E1,3.8E1,5.4E1,1.8E1,1E0,3E0,4.9E1,1.8E1,5.8E1,1.3E1,1.6E1,1.4E1,6.4E1,1.2E1,2.9E1,6E0,2.1E1,1.7E1],"tree_param":{"num_deleted":"0","num_feature":"7","num_nodes":"31","size_leaf_vector":"1"}},{"base_weights":[9.182191E-2,-1.8980595E0,2.520949E0,-2.8894944E0,-7.1305704E-1,1.382805E0,3.4087577E0,-3.2229784E0,-2.0218382E0,-3.215023E-1,-1.6876086E0,7.960621E-1,1.7497379E0,2.8123403E0,4.2847977E0,-3.3571848E-1,-4.042364E-2,-8.239756E-3,-2.2616935E-1,-7.1970694E-2,4.877671E-2,-3.1183133E-1,-1.1788025E-1,-5.233723E-2,9.9610046E-2,1.8536057E-1,9.857151E-2,2.7447343E-2,2.934659E-1,4.8348626E-1,3.082369E-1],"categories":[],"categories_nodes":[],"categories_segments":[],"categories_sizes":[],"default_left":[0,0,0,0,0,0,0,0,0,0,0,0,0,0,0,0,0,0,0,0,0,0,0,0,0,0,0,0,0,0,0],"id":5,"left_children":[1,3,5,7,9,11,13,15,17,19,21,23,25,27,29,-1,-1,-1,-1,-1,-1,-1,-1,-1,-1,-1,-1,-1,-1,-1,-1],"loss_changes":[1.9430885E3,2.575822E2,1.7817859E2,2.8205627E1,3.8379642E1,1.604602E1,4.0720703E1,3.079779E1,1.6560303E1,2.4197908E1,1.7434708E1,9.231266E0,2.0613708E0,1.8751556E1,1.0892273E1,0E0,0E0,0E0,0E0,0E0,0E0,0E0,0E0,0E0,0E0,0E0,0E0,0E0,0E0,0E0,0E0],"parents":[2147483647,0,0,1,1,2,2,3,3,4,4,5,5,6,6,7,7,8,8,9,9,10,10,11,11,12,12,13,13,14,14],"right_children":[2,4,6,8,10,12,14,16,18,20,22,24,26,28,30,-1,-1,-1,-1,-1,-1,-1,-1,-1,-1,-1,-1,-1,-1,-1,-1],"split_conditions":[6E0,3E0,9E0,2E0,4.02E2,7E0,1.1E1,4.95E2,9E0,5E0,1.2E2,1.37E2,3.91E2,1.36E2,2.84E2,-3.3571848E-1,-4.042364E-2,-8.239756E-3,-2.2616935E-1,-7.1970694E-2,4.877671E-2,-3.1183133E-1,-1.1788025E-1,-5.233723E-2,9.9610046E-2,1.8536057E-1,9.857151E-2,2.7447343E-2,2.934659E-1,4.8348626E-1,3.082369E-1],"split_indices":[3,3,3,3,6,3,3,6,1,3,0,6,0,6,6,0,0,0,0,0,0,0,0,0,0,0,0,0,0,0,0],"split_type":[0,0,0,0,0,0,0,0,0,0,0,0,0,0,0,0,0,0,0,0,0,0,0,0,0,0,0,0,0,0,0],"sum_hessian":[4E2,2.2E2,1.8E2,1.19E2,1.01E2,8E1,1E2,8.4E1,3.5E1,7.3E1,2.8E1,3.2E1,4.8E1,6.2E1,3.8E1,8E1,4E0,4E0,3.1E1,4.9E1,2.4E1,6E0,2.2E1,4E0,2.8E1,4.1E1,7E0,3E0,5.9E1,2.4E1,1.4E1],"tree_param":{"num_deleted":"0","num_feature":"7","num_nodes":"31","size_leaf_vector":"1"}},{"base_weights":[1.3336274E-1,-1.5856724E0,2.184071E0,-2.9219854E0,-8.2439107E-1,1.212183E0,2.9591787E0,-3.2295582E-1,-2.1826267E0,-1.355242E0,-3.665115E-1,9.3590605E-1,1.6848302E0,1.6327095E0,3.2304437E0,-1.858389E-1,-3.5013384E-1,-1.4960228E-1,-5.409321E-2,-1.6235904E-1,-1.7341746E-2,1.5214036E-1,4.858327E-2,9.0527795E-2,1.9386941E-1,1.9530047E-1,1.0598256E-1,2.7352512E-1,3.8172668E-1],"categories":[],"categories_nodes":[],"categories_segments":[],"categories_sizes":[],"default_left":[0,0,0,0,0,0,0,0,0,0,0,0,0,0,0,0,0,0,0,0,0,0,0,0,0,0,0,0,0],"id":6,"left_children":[1,3,5,7,9,11,13,-1,15,17,19,21,23,25,27,-1,-1,-1,-1,-1,-1,-1,-1,-1,-1,-1,-1,-1,-1],"loss_changes":[1.3994581E3,2.1733014E2,1.3276349E2,1.0688782E1,3.328943E1,9.1308365E0,3.0708069E1,0E0,4.610138E0,6.527664E0,1.8166256E1,1.3490761E1,3.984047E0,1.4165039E0,1.3387268E1,0E0,0E0,0E0,0E0,0E0,0E0,0E0,0E0,0E0,0E0,0E0,0E0,0E0,0E0],"parents":[2147483647,0,0,1,1,2,2,3,3,4,4,5,5,6,6,8,8,9,9,10,10,11,11,12,12,13,13,14,14],"right_children":[2,4,6,8,10,12,14,-1,16,18,20,22,24,26,28,-1,-1,-1,-1,-1,-1,-1,-1,-1,-1,-1,-1,-1,-1],"split_conditions":[6E0,2E0,9E0,3.28E2,4E0,8E0,1.3E1,-3.2295582E-1,6E0,3.2E1,8.1E1,1.51E2,1.44E2,2.27E2,1.1E1,-1.858389E-1,-3.5013384E-1,-1.4960228E-1,-5.409321E-2,-1.6235904E-1,-1.7341746E-2,1.5214036E-1,4.858327E-2,9.0527795E-2,1.9386941E-1,1.9530047E-1,1.0598256E-1,2.7352512E-1,3.8172668E-1],"split_indices":[3,3,3,0,3,3,1,0,4,1,0,0,0,0,3,0,0,0,0,0,0,0,0,0,0,0,0,0,0],"split_type":[0,0,0,0,0,0,0,0,0,0,0,0,0,0,0,0,0,0,0,0,0,0,0,0,0,0,0,0,0],"sum_hessian":[3.95E2,2.15E2,1.8E2,7.7E1,1.38E2,8.1E1,9.9E1,5.2E1,2.5E1,6.3E1,7.5E1,5.3E1,2.8E1,1.8E1,8.1E1,2.2E1,3E0,5.3E1,1E1,9E0,6.6E1,2.2E1,3.1E1,8E0,2E1,1E1,8E0,4.7E1,3.4E1],"tree_param":{"num_deleted":"0","num_feature":"7","num_nodes":"29","size_leaf_vector":"1"}},{"base_weights":[-6.378586E-2,-1.891229E0,1.5064439E0,-2.5679533E0,-6.2065697E-1,4.1513124E-1,2.3636975E0,-2.6571426E0,6.8343595E-2,-1.0876357E-1,-1.736768E0,1.829726E-1,1.2088169E0,1.8762224E0,3.3655357E0,-2.9874015E-1,-1.874554E-1,2.978007E-2,-1.838947E-2,-5.1711507E-2,6.422752E-2,-2.505006E-1,-6.412058E-2,2.494321E-2,-1.5395057E-1,1.5018025E-1,-8.769437E-3,9.874346E-2,1.9949958E-1,4.5629698E-1,2.9093277E-1],"categories":[],"categories_nodes":[],"categories_segments":[],"categories_sizes":[],"default_left":[0,0,0,0,0,0,0,0,0,0,0,0,0,0,0,0,0,0,0,0,0,0,0,0,0,0,0,0,0,0,0],"id":7,"left_children":[1,3,5,7,9,11,13,15,17,19,21,23,25,27,29,-1,-1,-1,-1,-1,-1,-1,-1,-1,-1,-1,-1,-1,-1,-1,-1],"loss_changes":[1.1736073E3,1.6091351E2,2.0483572E2,2.910254E1,3.8090206E1,1.7836397E1,5.3755127E1,2.5156311E1,3.441533E-1,1.4746456E1,1.6068474E1,9.19858E0,8.488598E0,7.0030518E0,8.029663E0,0E0,0E0,0E0,0E0,0E0,0E0,0E0,0E0,0E0,0E0,0E0,0E0,0E0,0E0,0E0,0E0],"parents":[2147483647,0,0,1,1,2,2,3,3,4,4,5,5,6,6,7,7,8,8,9,9,10,10,11,11,12,12,13,13,14,14],"right_children":[2,4,6,8,10,12,14,16,18,20,22,24,26,28,30,-1,-1,-1,-1,-1,-1,-1,-1,-1,-1,-1,-1,-1,-1,-1,-1],"split_conditions":[5E0,3E0,8E0,4.95E2,4E2,7E0,1.1E1,2E0,1.4E1,3.1E1,2.02E2,4.94E2,3.5E2,2E0,3E0,-2.9874015E-1,-1.874554E-1,2.978007E-2,-1.838947E-2,-5.1711507E-2,6.422752E-2,-2.505006E-1,-6.412058E-2,2.494321E-2,-1.5395057E-1,1.5018025E-1,-8.769437E-3,9.874346E-2,1.9949958E-1,4.5629698E-1,2.9093277E-1],"split_indices":[3,3,3,6,6,3,3,3,1,1,0,6,0,2,2,0,0,0,0,0,0,0,0,0,0,0,0,0,0,0,0],"split_type":[0,0,0,0,0,0,0,0,0,0,0,0,0,0,0,0,0,0,0,0,0,0,0,0,0,0,0,0,0,0,0],"sum_hessian":[4.07E2,1.88E2,2.19E2,1.22E2,6.6E1,9.7E1,1.22E2,1.18E2,4E0,4.6E1,2E1,7.6E1,2.1E1,8.4E1,3.8E1,8.1E1,3.7E1,2E0,2E0,3E1,1.6E1,1.1E1,9E0,7.4E1,2E0,1.7E1,4E0,1.1E1,7.3E1,8E0,3E1],"tree_param":{"num_deleted":"0","num_feature":"7","num_nodes":"31","size_leaf_vector":"1"}},{"base_weights":[3.1249477E-2,-4.9190697E-1,1.30952E-1,-2.967799E-1,-2.813101E0,6.756743E-1,2.790173E-2,-1.4849914E0,1.1403209E-1,-3.5415125E-1,5.0272704E-3,9.599629E-1,-1.4108706E0,-4.7508183E-1,1.9773224E-1,-2.6703361E-2,-2.4026215E-1,-2.9777884E-2,1.4888479E-1,1.7137258E-1,6.0949422E-2,5.4490875E-2,-3.0139324E-1,-8.140349E-2,1.1084228E-2,1.1139073E-1,3.4996883E-3],"categories":[],"categories_nodes":[],"categories_segments":[],"categories_sizes":[],"default_left":[0,0,0,0,0,0,0,0,0,0,0,0,0,0,0,0,0,0,0,0,0,0,0,0,0,0,0],"id":8,"left_children":[1,3,5,7,9,11,13,15,17,-1,-1,19,21,23,25,-1,-1,-1,-1,-1,-1,-1,-1,-1,-1,-1,-1],"loss_changes":[2.1502184E1,2.9058361E1,1.9403439E1,3.0433493E1,1.0606613E1,3.3979332E1,2.503715E1,1.7240574E1,2.705306E1,0E0,0E0,1.18998375E1,2.3588963E1,1.4786686E1,3.2612625E1,0E0,0E0,0E0,0E0,0E0,0E0,0E0,0E0,0E0,0E0,0E0,0E0],"parents":[2147483647,0,0,1,1,2,2,3,3,4,4,5,5,6,6,7,7,8,8,11,11,12,12,13,13,14,14],"right_children":[2,4,6,8,10,12,14,16,18,-1,-1,20,22,24,26,-1,-1,-1,-1,-1,-1,-1,-1,-1,-1,-1,-1],"split_conditions":[8.1E1,7.5E1,1.55E2,3E0,3.1E1,7E0,1.3E1,1.8E1,3.2E1,-3.5415125E-1,5.0272704E-3,1.4E1,3E0,1E1,1.7E1,-2.6703361E-2,-2.4026215E-1,-2.9777884E-2,1.4888479E-1,1.7137258E-1,6.0949422E-2,5.4490875E-2,-3.0139324E-1,-8.140349E-2,1.1084228E-2,1.1139073E-1,3.4996883E-3],"split_indices":[0,0,0,2,1,4,1,1,1,0,0,1,2,2,1,0,0,0,0,0,0,0,0,0,0,0,0],"split_type":[0,0,0,0,0,0,0,0,0,0,0,0,0,0,0,0,0,0,0,0,0,0,0,0,0,0,0],"sum_hessian":[4.1E2,6.5E1,3.45E2,6.1E1,4E0,5.4E1,2.91E2,1.5E1,4.6E1,3E0,1E0,4.8E1,6E0,7.3E1,2.18E2,7E0,8E0,3.6E1,1E1,1.4E1,3.4E1,3E0,3E0,4.6E1,2.7E1,3.2E1,1.86E2],"tree_param":{"num_deleted":"0","num_feature":"7","num_nodes":"27","size_leaf_vector":"1"}},{"base_weights":[5.5670157E-2,-1.3479689E0,1.7412603E0,-2.214576E0,-3.8688976E-1,8.5005754E-1,2.4978478E0,-2.019073E0,-3.89719E0,-7.6805943E-1,3.923561E-2,9.8885787E-1,-5.4256916E-3,2.0557303E0,3.2144496E0,-2.3347688E-1,-1.3119541E-1,-1.3776469E-1,-4.6698132E-1,-1.170398E-1,2.237994E-2,7.122952E-2,-2.8880006E-2,5.424851E-2,1.2980455E-1,3.8625855E-2,-5.2676708E-2,1.23950556E-1,2.2594833E-1,2.3642145E-1,4.0256414E-1],"categories":[],"categories_nodes":[],"categories_segments":[],"categories_sizes":[],"default_left":[0,0,0,0,0,0,0,0,0,0,0,0,0,0,0,0,0,0,0,0,0,0,0,0,0,0,0,0,0,0,0],"id":9,"left_children":[1,3,5,7,9,11,13,15,17,19,21,23,25,27,29,-1,-1,-1,-1,-1,-1,-1,-1,-1,-1,-1,-1,-1,-1,-1,-1],"loss_changes":[9.581951E2,1.8320923E2,1.2194287E2,3.0290222E1,1.7247297E1,1.0217121E1,2.4757385E1,2.0599731E1,1.4979874E1,2.2609463E1,1.1465876E1,9.508789E0,2.858084E0,7.8430786E0,1.5311859E1,0E0,0E0,0E0,0E0,0E0,0E0,0E0,0E0,0E0,0E0,0E0,0E0,0E0,0E0,0E0,0E0],"parents":[2147483647,0,0,1,1,2,2,3,3,4,4,5,5,6,6,7,7,8,8,9,9,10,10,11,11,12,12,13,13,14,14],"right_children":[2,4,6,8,10,12,14,16,18,20,22,24,26,28,30,-1,-1,-1,-1,-1,-1,-1,-1,-1,-1,-1,-1,-1,-1,-1,-1],"split_conditions":[6E0,3E0,9E0,7E0,4E0,4.06E2,1.1E1,2E0,7.3E1,3.3E1,6E0,7E0,1.9E1,1.2E1,3.21E2,-2.3347688E-1,-1.3119541E-1,-1.3776469E-1,-4.6698132E-1,-1.170398E-1,2.237994E-2,7.122952E-2,-2.8880006E-2,5.424851E-2,1.2980455E-1,3.8625855E-2,-5.2676708E-2,1.23950556E-1,2.2594833E-1,2.3642145E-1,4.0256414E-1],"split_indices":[3,3,3,4,4,0,3,3,0,1,4,3,1,1,0,0,0,0,0,0,0,0,0,0,0,0,0,0,0,0,0],"split_type":[0,0,0,0,0,0,0,0,0,0,0,0,0,0,0,0,0,0,0,0,0,0,0,0,0,0,0,0,0,0,0],"sum_hessian":[4.03E2,2.2E2,1.83E2,1.15E2,1.05E2,8.5E1,9.8E1,1.05E2,1E1,5.5E1,5E1,7.3E1,1.2E1,6.3E1,3.5E1,7.1E1,3.4E1,3E0,7E0,3.9E1,1.6E1,1.6E1,3.4E1,3.1E1,4.2E1,7E0,5E0,1.4E1,4.9E1,1.9E1,1.6E1],"tree_param":{"num_deleted":"0","num_feature":"7","num_nodes":"31","size_leaf_vector":"1"}},{"base_weights":[-1.1649403E-2,-1.5045675E0,1.3776478E0,-2.196845E0,-9.569798E-1,4.5261866E-1,2.1138992E0,-2.3063037E0,8.1429385E-2,-2.2581837E0,-8.507498E-1,8.826725E-2,7.4111575E-1,1.7831247E0,2.8662622E0,-2.048962E-1,-3.1360587E-1,-3.8172603E-2,2.9264975E-2,5.8996202E-3,-2.5976375E-1,-1.2852761E-1,-5.8263507E-2,-2.610952E-2,1.04165845E-1,1.1059536E-1,1.1513475E-2,3.424002E-2,1.8492283E-1,3.390033E-1,1.9418994E-1],"categories":[],"categories_nodes":[],"categories_segments":[],"categories_sizes":[],"default_left":[0,0,0,0,0,0,0,0,0,0,0,0,0,0,0,0,0,0,0,0,0,0,0,0,0,0,0,0,0,0,0],"id":10,"left_children":[1,3,5,7,9,11,13,15,17,19,21,23,25,27,29,-1,-1,-1,-1,-1,-1,-1,-1,-1,-1,-1,-1,-1,-1,-1,-1],"loss_changes":[8.649012E2,7.409326E1,1.4615085E2,2.2132965E1,1.3836731E1,1.0130674E1,2.4752625E1,1.1510925E1,6.008513E-1,6.445854E0,1.1716957E1,1.492745E1,1.2205271E1,7.5572205E0,1.0362244E1,0E0,0E0,0E0,0E0,0E0,0E0,0E0,0E0,0E0,0E0,0E0,0E0,0E0,0E0,0E0,0E0],"parents":[2147483647,0,0,1,1,2,2,3,3,4,4,5,5,6,6,7,7,8,8,9,9,10,10,11,11,12,12,13,13,14,14],"right_children":[2,4,6,8,10,12,14,16,18,20,22,24,26,28,30,-1,-1,-1,-1,-1,-1,-1,-1,-1,-1,-1,-1,-1,-1,-1,-1],"split_conditions":[5E0,2E0,8E0,4.95E2,4.8E1,3E0,1.1E1,6E0,6E1,1.32E2,2.63E2,7E0,6E0,2.7E1,2.84E2,-2.048962E-1,-3.1360587E-1,-3.8172603E-2,2.9264975E-2,5.8996202E-3,-2.5976375E-1,-1.2852761E-1,-5.8263507E-2,-2.610952E-2,1.04165845E-1,1.1059536E-1,1.1513475E-2,3.424002E-2,1.8492283E-1,3.390033E-1,1.9418994E-1],"split_indices":[3,3,3,6,0,4,3,4,0,6,6,3,4,0,6,0,0,0,0,0,0,0,0,0,0,0,0,0,0,0,0],"split_type":[0,0,0,0,0,0,0,0,0,0,0,0,0,0,0,0,0,0,0,0,0,0,0,0,0,0,0,0,0,0,0],"sum_hessian":[4.15E2,2E2,2.15E2,8.7E1,1.13E2,9.6E1,1.19E2,8.3E1,4E0,7E0,1.06E2,4.3E1,5.3E1,8.5E1,3.4E1,6.6E1,1.7E1,1E0,3E0,1E0,6E0,3.9E1,6.7E1,3.2E1,1.1E1,3.3E1,2E1,4E0,8.1E1,2E1,1.4E1],"tree_param":{"num_deleted":"0","num_feature":"7","num_nodes":"31","size_leaf_vector":"1"}},{"base_weights":[-3.7724357E-2,-6.9587815E-1,5.5886906E-2,-1.4126661E0,-3.94623E-1,1.2963866E-1,-1.0496125E0,8.11534E-2,-1.8172764E0,-2.0482843E0,4.4858042E-2,6.82505E-2,1.4715354E0,-2.7616683E-1,-8.4626144E-1,-2.8514901E-2,-2.2483997E-1,5.1427294E-2,-2.4878314E-1,1.2429301E-1,-3.563684E-2,1.7750744E-2,-4.812616E-2,2.1641187E-1,-3.4645494E-2,-1.5380149E-1,-2.4904637E-2],"categories":[],"categories_nodes":[],"categories_segments":[],"categories_sizes":[],"default_left":[0,0,0,0,0,0,0,0,0,0,0,0,0,0,0,0,0,0,0,0,0,0,0,0,0,0,0],"id":11,"left_children":[1,3,5,7,9,11,13,-1,15,17,19,21,23,-1,25,-1,-1,-1,-1,-1,-1,-1,-1,-1,-1,-1,-1],"loss_changes":[2.5730515E1,1.06712055E1,2.9976973E1,1.4973795E1,2.7708483E1,2.8237103E1,5.6703186E0,0E0,7.945835E0,1.0290344E1,1.5344583E1,1.989797E1,1.9636414E1,0E0,8.705726E0,0E0,0E0,0E0,0E0,0E0,0E0,0E0,0E0,0E0,0E0,0E0,0E0],"parents":[2147483647,0,0,1,1,2,2,3,3,4,4,5,5,6,6,8,8,9,9,10,10,11,11,12,12,14,14],"right_children":[2,4,6,8,10,12,14,-1,16,18,20,22,24,-1,26,-1,-1,-1,-1,-1,-1,-1,-1,-1,-1,-1,-1],"split_conditions":[1E0,1.61E2,4.7E2,1.07E2,1.65E2,4.55E2,7E0,8.11534E-2,4.6E1,4E0,1.5E1,4.38E2,1E1,-2.7616683E-1,2.98E2,-2.8514901E-2,-2.2483997E-1,5.1427294E-2,-2.4878314E-1,1.2429301E-1,-3.563684E-2,1.7750744E-2,-4.812616E-2,2.1641187E-1,-3.4645494E-2,-1.5380149E-1,-2.4904637E-2],"split_indices":[4,0,0,6,6,0,1,0,0,2,1,6,2,0,6,0,0,0,0,0,0,0,0,0,0,0,0],"split_type":[0,0,0,0,0,0,0,0,0,0,0,0,0,0,0,0,0,0,0,0,0,0,0,0,0,0,0],"sum_hessian":[4.16E2,5.1E1,3.65E2,1.4E1,3.7E1,3.43E2,2.2E1,2E0,1.2E1,7E0,3E1,3.29E2,1.4E1,1E0,2.1E1,3E0,9E0,1E0,6E0,7E0,2.3E1,2.75E2,5.4E1,1E1,4E0,9E0,1.2E1],"tree_param":{"num_deleted":"0","num_feature":"7","num_nodes":"27","size_leaf_vector":"1"}},{"base_weights":[-4.587537E-2,-1.1568912E0,1.3523033E0,-1.9516698E0,-6.916974E-1,7.697389E-1,2.119187E0,-2.0814958E0,8.2984686E-2,-8.541599E-1,-1.7155764E-1,4.3068033E-1,1.0819854E0,2.3051145E0,1.0122336E0,-1.4919142E-1,-2.2190921E-1,-3.385767E-2,2.350123E-2,-1.3873063E-1,-5.7975214E-2,-7.660217E-2,8.654474E-3,1.8371992E-1,2.4196133E-2,5.7258308E-2,1.364793E-1,-2.5303198E-2,2.3483634E-1,1.1212627E-2,1.5607849E-1],"categories":[],"categories_nodes":[],"categories_segments":[],"categories_sizes":[],"default_left":[0,0,0,0,0,0,0,0,0,0,0,0,0,0,0,0,0,0,0,0,0,0,0,0,0,0,0,0,0,0,0],"id":12,"left_children":[1,3,5,7,9,11,13,15,17,19,21,23,25,27,29,-1,-1,-1,-1,-1,-1,-1,-1,-1,-1,-1,-1,-1,-1,-1,-1],"loss_changes":[6.384579E2,8.331732E1,7.9678955E1,2.236142E1,1.2190933E1,1.0650349E1,1.3720093E1,3.098114E0,4.641035E-1,1.5434952E1,5.5898685E0,1.3358183E1,6.997944E0,7.89624E0,6.2438107E0,0E0,0E0,0E0,0E0,0E0,0E0,0E0,0E0,0E0,0E0,0E0,0E0,0E0,0E0,0E0,0E0],"parents":[2147483647,0,0,1,1,2,2,3,3,4,4,5,5,6,6,7,7,8,8,9,9,10,10,11,11,12,12,13,13,14,14],"right_children":[2,4,6,8,10,12,14,16,18,20,22,24,26,28,30,-1,-1,-1,-1,-1,-1,-1,-1,-1,-1,-1,-1,-1,-1,-1,-1],"split_conditions":[6E0,2E0,1E1,4.95E2,5E0,8E0,4.27E2,2.13E2,6E1,2.63E2,3E0,4E1,1.63E2,1.07E2,5E0,-1.4919142E-1,-2.2190921E-1,-3.385767E-2,2.350123E-2,-1.3873063E-1,-5.7975214E-2,-7.660217E-2,8.654474E-3,1.8371992E-1,2.4196133E-2,5.7258308E-2,1.364793E-1,-2.5303198E-2,2.3483634E-1,1.1212627E-2,1.5607849E-1],"split_indices":[3,3,3,6,3,3,6,6,0,6,4,0,0,6,4,0,0,0,0,0,0,0,0,0,0,0,0,0,0,0,0],"split_type":[0,0,0,0,0,0,0,0,0,0,0,0,0,0,0,0,0,0,0,0,0,0,0,0,0,0,0,0,0,0,0],"sum_hessian":[4.09E2,2.28E2,1.81E2,8.3E1,1.45E2,1.04E2,7.7E1,7.8E1,5E0,1.1E2,3.5E1,5.1E1,5.3E1,6.5E1,1.2E1,1.7E1,6.1E1,1E0,4E0,3.6E1,7.4E1,1E1,2.5E1,5E0,4.6E1,2E1,3.3E1,1E0,6.4E1,5E0,7E0],"tree_param":{"num_deleted":"0","num_feature":"7","num_nodes":"31","size_leaf_vector":"1"}},{"base_weights":[-1.5350251E-2,-1.1195672E0,1.3557019E0,-1.7023247E0,-4.5954618E-1,7.604097E-1,1.8020098E0,-1.3881434E0,-2.9260163E0,-1.1934936E0,-3.2396057E-1,8.699386E-1,-4.7480324E-1,1.9206309E0,1.0517954E0,-1.462709E-1,-3.8303495E-3,-1.4854655E-1,-3.3470657E-1,-1.7375277E-1,3.5088688E-2,5.9017595E-3,-7.831057E-2,4.41917E-2,1.201308E-1,-8.888828E-2,-1.3139486E-2,1.3897845E-1,2.1275015E-1,1.2731662E-1,-1.1343837E-1],"categories":[],"categories_nodes":[],"categories_segments":[],"categories_sizes":[],"default_left":[0,0,0,0,0,0,0,0,0,0,0,0,0,0,0,0,0,0,0,0,0,0,0,0,0,0,0,0,0,0,0],"id":13,"left_children":[1,3,5,7,9,11,13,15,17,19,21,23,25,27,29,-1,-1,-1,-1,-1,-1,-1,-1,-1,-1,-1,-1,-1,-1,-1,-1],"loss_changes":[6.040655E2,8.4221436E1,4.5921417E1,4.0920227E1,1.0062189E1,1.096579E1,6.967987E0,9.50589E0,8.978546E0,1.4052805E1,1.58720455E1,9.681114E0,8.785939E-1,6.4874573E0,9.187559E0,0E0,0E0,0E0,0E0,0E0,0E0,0E0,0E0,0E0,0E0,0E0,0E0,0E0,0E0,0E0,0E0],"parents":[2147483647,0,0,1,1,2,2,3,3,4,4,5,5,6,6,7,7,8,8,9,9,10,10,11,11,12,12,13,13,14,14],"right_children":[2,4,6,8,10,12,14,16,18,20,22,24,26,28,30,-1,-1,-1,-1,-1,-1,-1,-1,-1,-1,-1,-1,-1,-1,-1,-1],"split_conditions":[6E0,3E0,9E0,6E0,8.1E1,1.4E1,4.26E2,4.63E2,7.3E1,9E0,2.8E1,7E0,1.2E1,5E0,1.2E1,-1.462709E-1,-3.8303495E-3,-1.4854655E-1,-3.3470657E-1,-1.7375277E-1,3.5088688E-2,5.9017595E-3,-7.831057E-2,4.41917E-2,1.201308E-1,-8.888828E-2,-1.3139486E-2,1.3897845E-1,2.1275015E-1,1.2731662E-1,-1.1343837E-1],"split_indices":[3,3,3,4,0,2,0,0,0,2,1,3,1,2,2,0,0,0,0,0,0,0,0,0,0,0,0,0,0,0,0],"split_type":[0,0,0,0,0,0,0,0,0,0,0,0,0,0,0,0,0,0,0,0,0,0,0,0,0,0,0,0,0,0,0],"sum_hessian":[3.97E2,2.2E2,1.77E2,1.16E2,1.04E2,7.7E1,1E2,9.4E1,2.2E1,1.5E1,8.9E1,7.1E1,6E0,8.5E1,1.5E1,8.9E1,5E0,6E0,1.6E1,1.1E1,4E0,4.9E1,4E1,3.2E1,3.9E1,2E0,4E0,2.6E1,5.9E1,1.4E1,1E0],"tree_param":{"num_deleted":"0","num_feature":"7","num_nodes":"31","size_leaf_vector":"1"}},{"base_weights":[-4.300536E-2,1.226936E-1,-5.681212E-1,8.158358E-2,1.068273E0,-1.5565354E0,-2.9818678E-1,9.804548E-2,-2.4367248E-1,-9.847645E-2,1.8098009E0,5.921729E-1,-1.947552E0,-1.5568163E0,-7.1690574E-2,-6.1925324E-3,2.752295E-2,4.810416E-2,-5.0849587E-2,2.792906E-1,6.613569E-2,-1.1680531E-2,1.3595538E-1,-2.507729E-1,-4.092436E-2,-2.4982882E-1,2.6090184E-2,1.13540486E-1,-3.5062898E-2],"categories":[],"categories_nodes":[],"categories_segments":[],"categories_sizes":[],"default_left":[0,0,0,0,0,0,0,0,0,0,0,0,0,0,0,0,0,0,0,0,0,0,0,0,0,0,0,0,0],"id":14,"left_children":[1,3,5,7,9,11,13,15,-1,17,19,21,23,25,27,-1,-1,-1,-1,-1,-1,-1,-1,-1,-1,-1,-1,-1,-1],"loss_changes":[3.59183E1,1.21189E1,2.594975E1,1.2758667E1,1.1425527E1,1.8797077E1,2.2409304E1,8.54867E0,0E0,1.6702896E0,7.185219E0,2.3350286E0,1.4484772E1,2.1187773E1,2.3294062E1,0E0,0E0,0E0,0E0,0E0,0E0,0E0,0E0,0E0,0E0,0E0,0E0,0E0,0E0],"parents":[2147483647,0,0,1,1,2,2,3,3,4,4,5,5,6,6,7,7,9,9,10,10,11,11,12,12,13,13,14,14],"right_children":[2,4,6,8,10,12,14,16,-1,18,20,22,24,26,28,-1,-1,-1,-1,-1,-1,-1,-1,-1,-1,-1,-1,-1,-1],"split_conditions":[4.06E2,3.9E1,1.1E2,4.96E2,4E0,2.3E1,4.17E2,2.66E2,-2.4367248E-1,3.01E2,2.29E2,1.9E1,4.72E2,1E1,4.38E2,-6.1925324E-3,2.752295E-2,4.810416E-2,-5.0849587E-2,2.792906E-1,6.613569E-2,-1.1680531E-2,1.3595538E-1,-2.507729E-1,-4.092436E-2,-2.4982882E-1,2.6090184E-2,1.13540486E-1,-3.5062898E-2],"split_indices":[6,1,0,0,2,0,6,6,0,6,0,0,6,2,6,0,0,0,0,0,0,0,0,0,0,0,0,0,0],"split_type":[0,0,0,0,0,0,0,0,0,0,0,0,0,0,0,0,0,0,0,0,0,0,0,0,0,0,0,0,0],"sum_hessian":[4.11E2,3.13E2,9.8E1,3.01E2,1.2E1,2E1,7.8E1,3E2,1E0,5E0,7E0,3E0,1.7E1,1.1E1,6.7E1,1.58E2,1.42E2,2E0,3E0,3E0,4E0,2E0,1E0,1.2E1,5E0,7E0,4E0,1.2E1,5.5E1],"tree_param":{"num_deleted":"0","num_feature":"7","num_nodes":"29","size_leaf_vector":"1"}},{"base_weights":[-4.9559135E-2,-9.655418E-1,1.0819253E0,-1.5245163E0,-6.4277315E-1,7.4325025E-1,1.6180255E0,-1.6102564E0,1.17933035E-1,-1.3786534E0,-5.140031E-1,3.862696E-1,1.0064162E0,1.7751685E0,8.6265576E-1,-1.407092E-1,-2.369741E-1,-2.2805024E-2,2.6144141E-2,1.1049505E-2,-1.981679E-1,-3.0738462E-2,-9.789615E-2,9.21932E-2,8.238496E-3,1.2081229E-1,1.4867783E-3,-3.009422E-2,1.817616E-1,1.4241382E-1,-1.2334387E-2],"categories":[],"categories_nodes":[],"categories_segments":[],"categories_sizes":[],"default_left":[0,0,0,0,0,0,0,0,0,0,0,0,0,0,0,0,0,0,0,0,0,0,0,0,0,0,0,0,0,0,0],"id":15,"left_children":[1,3,5,7,9,11,13,15,17,19,21,23,25,27,29,-1,-1,-1,-1,-1,-1,-1,-1,-1,-1,-1,-1,-1,-1,-1,-1],"loss_changes":[4.2390402E2,3.9794876E1,3.2023575E1,1.1737442E1,1.3031479E1,1.0320999E1,6.77771E0,8.7009735E0,3.0787924E-1,1.9076855E1,1.1707706E1,8.063025E0,1.298217E1,5.57016E0,7.926359E0,0E0,0E0,0E0,0E0,0E0,0E0,0E0,0E0,0E0,0E0,0E0,0E0,0E0,0E0,0E0,0E0],"parents":[2147483647,0,0,1,1,2,2,3,3,4,4,5,5,6,6,7,7,8,8,9,9,10,10,11,11,12,12,13,13,14,14],"right_children":[2,4,6,8,10,12,14,16,18,20,22,24,26,28,30,-1,-1,-1,-1,-1,-1,-1,-1,-1,-1,-1,-1,-1,-1,-1,-1],"split_conditions":[6E0,2E0,1E1,4.95E2,1.6E2,2.41E2,4.03E2,6E0,6E1,1.1E2,4.06E2,2E0,4.18E2,1.07E2,2.3E1,-1.407092E-1,-2.369741E-1,-2.2805024E-2,2.6144141E-2,1.1049505E-2,-1.981679E-1,-3.0738462E-2,-9.789615E-2,9.21932E-2,8.238496E-3,1.2081229E-1,1.4867783E-3,-3.009422E-2,1.817616E-1,1.4241382E-1,-1.2334387E-2],"split_indices":[3,3,3,6,6,6,6,4,0,6,6,4,0,6,1,0,0,0,0,0,0,0,0,0,0,0,0,0,0,0,0],"split_type":[0,0,0,0,0,0,0,0,0,0,0,0,0,0,0,0,0,0,0,0,0,0,0,0,0,0,0,0,0,0,0],"sum_hessian":[4.07E2,2.25E2,1.82E2,8.1E1,1.44E2,1.13E2,6.9E1,7.7E1,4E0,2E1,1.24E2,4.9E1,6.4E1,5.6E1,1.3E1,6.3E1,1.4E1,1E0,3E0,6E0,1.4E1,8.7E1,3.7E1,1.7E1,3.2E1,5.3E1,1.1E1,1E0,5.5E1,8E0,5E0],"tree_param":{"num_deleted":"0","num_feature":"7","num_nodes":"31","size_leaf_vector":"1"}},{"base_weights":[-1.5481329E-2,-9.626543E-1,8.5209525E-1,-1.4773259E0,-5.5522716E-1,5.1228637E-1,1.488054E0,-1.5824211E0,1.8767981E-1,-7.048005E-1,1.19363345E-1,1.7432584E-1,8.1592196E-1,1.6764888E0,4.748993E-1,-1.371647E-1,-2.3529628E-1,3.6804046E-2,-1.1536098E-2,-1.1539264E-1,-2.2005124E-2,6.902733E-2,-5.7766493E-2,-3.4288134E-2,5.2328862E-2,1.248014E-1,4.5699444E-2,1.4297846E-1,2.2454245E-1,9.483461E-3,1.3063362E-1],"categories":[],"categories_nodes":[],"categories_segments":[],"categories_sizes":[],"default_left":[0,0,0,0,0,0,0,0,0,0,0,0,0,0,0,0,0,0,0,0,0,0,0,0,0,0,0,0,0,0,0],"id":16,"left_children":[1,3,5,7,9,11,13,15,17,19,21,23,25,27,29,-1,-1,-1,-1,-1,-1,-1,-1,-1,-1,-1,-1,-1,-1,-1,-1],"loss_changes":[3.36914E2,4.0279205E1,4.548404E1,1.5345612E1,1.1284107E1,1.432674E1,1.3331451E1,9.927811E0,3.703972E-1,1.9558002E1,8.755493E0,1.2452478E1,1.09063E1,5.4917603E0,3.9841115E0,0E0,0E0,0E0,0E0,0E0,0E0,0E0,0E0,0E0,0E0,0E0,0E0,0E0,0E0,0E0,0E0],"parents":[2147483647,0,0,1,1,2,2,3,3,4,4,5,5,6,6,7,7,8,8,9,9,10,10,11,11,12,12,13,13,14,14],"right_children":[2,4,6,8,10,12,14,16,18,20,22,24,26,28,30,-1,-1,-1,-1,-1,-1,-1,-1,-1,-1,-1,-1,-1,-1,-1,-1],"split_conditions":[5E0,2E0,1E1,4.95E2,3.2E1,7E0,4.03E2,6E0,1.4E1,4E0,3.6E1,3E0,3E0,6E0,4.93E2,-1.371647E-1,-2.3529628E-1,3.6804046E-2,-1.1536098E-2,-1.1539264E-1,-2.2005124E-2,6.902733E-2,-5.7766493E-2,-3.4288134E-2,5.2328862E-2,1.248014E-1,4.5699444E-2,1.4297846E-1,2.2454245E-1,9.483461E-3,1.3063362E-1],"split_indices":[3,3,3,6,1,3,6,4,1,4,1,4,4,4,6,0,0,0,0,0,0,0,0,0,0,0,0,0,0,0,0],"split_type":[0,0,0,0,0,0,0,0,0,0,0,0,0,0,0,0,0,0,0,0,0,0,0,0,0,0,0,0,0,0,0],"sum_hessian":[4.08E2,1.95E2,2.13E2,8.5E1,1.1E2,1.4E2,7.3E1,8E1,5E0,9E1,2E1,6.7E1,7.3E1,6.1E1,1.2E1,6.5E1,1.5E1,3E0,2E0,4.6E1,4.4E1,1.1E1,9E0,2.7E1,4E1,3.2E1,4.1E1,4.5E1,1.6E1,9E0,3E0],"tree_param":{"num_deleted":"0","num_feature":"7","num_nodes":"31","size_leaf_vector":"1"}},{"base_weights":[2.1077137E-2,-8.565297E-1,8.8610625E-1,-1.1455215E0,-3.2877722E-1,4.2199913E-1,1.4483634E0,-9.4585836E-1,-1.9782188E0,-6.753794E-2,-1.2878759E0,4.94081E-1,-4.9788088E-1,1.0963367E0,1.9948423E0,-2.69641E-1,-8.715774E-2,-1.4038521E-1,-3.2546112E-1,-4.071271E-2,4.2417195E-2,-2.2890918E-1,-7.633797E-2,2.772509E-2,7.638599E-2,3.487554E-2,-1.244941E-1,-4.0312815E-2,1.2399813E-1,3.2259747E-1,1.5278767E-1],"categories":[],"categories_nodes":[],"categories_segments":[],"categories_sizes":[],"default_left":[0,0,0,0,0,0,0,0,0,0,0,0,0,0,0,0,0,0,0,0,0,0,0,0,0,0,0,0,0,0,0],"id":17,"left_children":[1,3,5,7,9,11,13,15,17,19,21,23,25,27,29,-1,-1,-1,-1,-1,-1,-1,-1,-1,-1,-1,-1,-1,-1,-1,-1],"loss_changes":[3.1808597E2,3.134674E1,5.444873E1,2.0407593E1,1.8704588E1,8.00387E0,1.6088608E1,1.1953468E1,1.3758934E1,1.0191453E1,6.6546974E0,6.164301E0,6.1265726E0,1.3423271E1,1.576738E1,0E0,0E0,0E0,0E0,0E0,0E0,0E0,0E0,0E0,0E0,0E0,0E0,0E0,0E0,0E0,0E0],"parents":[2147483647,0,0,1,1,2,2,3,3,4,4,5,5,6,6,7,7,8,8,9,9,10,10,11,11,12,12,13,13,14,14],"right_children":[2,4,6,8,10,12,14,16,18,20,22,24,26,28,30,-1,-1,-1,-1,-1,-1,-1,-1,-1,-1,-1,-1,-1,-1,-1,-1],"split_conditions":[5E0,3E0,9E0,6E0,4E2,1.4E1,1.1E1,9E0,4.08E2,4E0,2E0,7E0,3.28E2,1.66E2,3E0,-2.69641E-1,-8.715774E-2,-1.4038521E-1,-3.2546112E-1,-4.071271E-2,4.2417195E-2,-2.2890918E-1,-7.633797E-2,2.772509E-2,7.638599E-2,3.487554E-2,-1.244941E-1,-4.0312815E-2,1.2399813E-1,3.2259747E-1,1.5278767E-1],"split_indices":[3,3,3,4,6,2,3,0,6,4,2,3,6,6,2,0,0,0,0,0,0,0,0,0,0,0,0,0,0,0,0],"split_type":[0,0,0,0,0,0,0,0,0,0,0,0,0,0,0,0,0,0,0,0,0,0,0,0,0,0,0,0,0,0,0],"sum_hessian":[4.17E2,2.07E2,2.1E2,1.33E2,7.4E1,1.16E2,9.4E1,1.09E2,2.4E1,5.9E1,1.5E1,1.08E2,8E0,5.9E1,3.5E1,3E0,1.06E2,1.8E1,6E0,3.5E1,2.4E1,4E0,1.1E1,6.1E1,4.7E1,4E0,4E0,5E0,5.4E1,8E0,2.7E1],"tree_param":{"num_deleted":"0","num_feature":"7","num_nodes":"31","size_leaf_vector":"1"}},{"base_weights":[2.1710051E-2,-9.569623E-1,5.8863246E-1,-1.3799229E0,-7.669892E-1,2.967967E-2,9.942442E-1,-5.536181E-1,-1.747078E0,-8.621629E-1,4.7096902E-1,-3.137954E-1,2.9383785E-1,7.903383E-1,1.5334135E0,3.241334E-2,-1.3621674E-1,-1.0699748E-1,-2.2726698E-1,-1.0779064E-1,-3.265518E-2,7.7901065E-2,2.3845335E-2,1.0977966E-2,-1.3200638E-1,4.366608E-2,-3.2574426E-2,8.462777E-2,-3.0167818E-2,2.6337036E-1,1.1645094E-1],"categories":[],"categories_nodes":[],"categories_segments":[],"categories_sizes":[],"default_left":[0,0,0,0,0,0,0,0,0,0,0,0,0,0,0,0,0,0,0,0,0,0,0,0,0,0,0,0,0,0,0],"id":18,"left_children":[1,3,5,7,9,11,13,15,17,19,21,23,25,27,29,-1,-1,-1,-1,-1,-1,-1,-1,-1,-1,-1,-1,-1,-1,-1,-1],"loss_changes":[2.2083131E2,1.0672882E1,5.7103386E1,1.2381599E1,1.2541626E1,9.800502E0,1.4839294E1,1.1087103E1,8.24469E0,1.0741257E1,3.872385E-1,2.0177732E1,5.5401626E0,6.8526764E0,1.2763191E1,0E0,0E0,0E0,0E0,0E0,0E0,0E0,0E0,0E0,0E0,0E0,0E0,0E0,0E0,0E0,0E0],"parents":[2147483647,0,0,1,1,2,2,3,3,4,4,5,5,6,6,7,7,8,8,9,9,10,10,11,11,12,12,13,13,14,14],"right_children":[2,4,6,8,10,12,14,16,18,20,22,24,26,28,30,-1,-1,-1,-1,-1,-1,-1,-1,-1,-1,-1,-1,-1,-1,-1,-1],"split_conditions":[4E0,1E0,7E0,7E0,1.4E1,2.21E2,1.1E1,3.48E2,1E0,3.71E2,5E1,1.69E2,4.76E2,4.66E2,3E0,3.241334E-2,-1.3621674E-1,-1.0699748E-1,-2.2726698E-1,-1.0779064E-1,-3.265518E-2,7.7901065E-2,2.3845335E-2,1.0977966E-2,-1.3200638E-1,4.366608E-2,-3.2574426E-2,8.462777E-2,-3.0167818E-2,2.6337036E-1,1.1645094E-1],"split_indices":[3,3,3,2,2,0,3,0,5,0,0,0,0,0,2,0,0,0,0,0,0,0,0,0,0,0,0,0,0,0,0],"split_type":[0,0,0,0,0,0,0,0,0,0,0,0,0,0,0,0,0,0,0,0,0,0,0,0,0,0,0,0,0,0,0],"sum_hessian":[3.96E2,1.45E2,2.51E2,4.3E1,1.02E2,1.06E2,1.45E2,1.4E1,2.9E1,9.5E1,7E0,4.6E1,6E1,1.07E2,3.8E1,7E0,7E0,1.4E1,1.5E1,6.7E1,2.8E1,2E0,5E0,3.3E1,1.3E1,4.9E1,1.1E1,1.02E2,5E0,8E0,3E1],"tree_param":{"num_deleted":"0","num_feature":"7","num_nodes":"31","size_leaf_vector":"1"}},{"base_weights":[2.8992131E-2,-8.505046E-1,5.71468E-1,-3.7474114E-1,-9.8328793E-1,1.7344971E-1,1.0014756E0,-7.6349807E-1,-7.921281E-2,-1.3776473E0,-7.5833434E-1,4.112879E-1,-1.2888886E-1,1.0951144E0,1.537199E-1,3.5863386E-3,-1.4674222E-1,-3.2228183E-2,3.5605956E-2,-5.908947E-2,-1.5743104E-1,-8.2640074E-2,4.0071618E-2,-7.1985176E-4,1.1680595E-1,5.8366854E-2,-4.6413142E-2,9.4181135E-2,1.4249867E-1,6.711125E-2,-5.617568E-2],"categories":[],"categories_nodes":[],"categories_segments":[],"categories_sizes":[],"default_left":[0,0,0,0,0,0,0,0,0,0,0,0,0,0,0,0,0,0,0,0,0,0,0,0,0,0,0,0,0,0,0],"id":19,"left_children":[1,3,5,7,9,11,13,15,17,19,21,23,25,27,29,-1,-1,-1,-1,-1,-1,-1,-1,-1,-1,-1,-1,-1,-1,-1,-1],"loss_changes":[1.9132834E2,9.297058E0,4.2271713E1,3.9606261E0,9.512077E0,9.401006E0,9.278221E0,8.492975E0,2.3365772E0,5.568199E0,6.484768E0,2.3127407E1,1.4125915E1,4.0689697E0,5.1893716E0,0E0,0E0,0E0,0E0,0E0,0E0,0E0,0E0,0E0,0E0,0E0,0E0,0E0,0E0,0E0,0E0],"parents":[2147483647,0,0,1,1,2,2,3,3,4,4,5,5,6,6,7,7,8,8,9,9,10,10,11,11,12,12,13,13,14,14],"right_children":[2,4,6,8,10,12,14,16,18,20,22,24,26,28,30,-1,-1,-1,-1,-1,-1,-1,-1,-1,-1,-1,-1,-1,-1,-1,-1],"split_conditions":[4E0,1.1E1,8E0,2E0,1E0,8E0,1.3E1,1E0,7E0,1.7E1,1.4E1,4E0,1.2E1,1.1E1,1E0,3.5863386E-3,-1.4674222E-1,-3.2228183E-2,3.5605956E-2,-5.908947E-2,-1.5743104E-1,-8.2640074E-2,4.0071618E-2,-7.1985176E-4,1.1680595E-1,5.8366854E-2,-4.6413142E-2,9.4181135E-2,1.4249867E-1,6.711125E-2,-5.617568E-2],"split_indices":[3,1,3,3,3,2,2,3,2,1,2,2,1,3,5,0,0,0,0,0,0,0,0,0,0,0,0,0,0,0,0],"split_type":[0,0,0,0,0,0,0,0,0,0,0,0,0,0,0,0,0,0,0,0,0,0,0,0,0,0,0,0,0,0,0],"sum_hessian":[3.99E2,1.52E2,2.47E2,3.4E1,1.18E2,1.29E2,1.18E2,1.4E1,2E1,4.1E1,7.7E1,7.2E1,5.7E1,1.06E2,1.2E1,7E0,7E0,1.3E1,7E0,9E0,3.2E1,7.3E1,4E0,4.7E1,2.5E1,1.8E1,3.9E1,7.5E1,3.1E1,7E0,5E0],"tree_param":{"num_deleted":"0","num_feature":"7","num_nodes":"31","size_leaf_vector":"1"}},{"base_weights":[1.9917756E-2,-6.4991546E-1,6.159165E-1,-7.4518436E-1,1.2878597E-1,2.4228722E-1,1.0625792E0,-5.5197644E-1,-1.5481278E0,7.470889E-1,-4.4872388E-1,3.0780897E-1,-6.000152E-1,8.092631E-1,1.4315457E0,-1.24715105E-1,-3.4472592E-2,-2.704645E-1,-1.19095184E-1,9.728626E-2,1.0876924E-2,3.69452E-2,-1.6680606E-1,7.984987E-3,4.6547968E-2,1.0025759E-2,-1.180285E-1,-2.4109174E-2,9.723561E-2,1.6658661E-1,3.1532146E-2],"categories":[],"categories_nodes":[],"categories_segments":[],"categories_sizes":[],"default_left":[0,0,0,0,0,0,0,0,0,0,0,0,0,0,0,0,0,0,0,0,0,0,0,0,0,0,0,0,0,0,0],"id":20,"left_children":[1,3,5,7,9,11,13,15,17,19,21,23,25,27,29,-1,-1,-1,-1,-1,-1,-1,-1,-1,-1,-1,-1,-1,-1,-1,-1],"loss_changes":[1.6447961E2,1.448806E1,3.6123756E1,2.5983818E1,8.190909E0,6.8073854E0,8.094543E0,1.9884693E1,1.0410553E1,1.479456E0,1.258785E1,3.988388E0,3.7754567E0,1.0684063E1,9.6753235E0,0E0,0E0,0E0,0E0,0E0,0E0,0E0,0E0,0E0,0E0,0E0,0E0,0E0,0E0,0E0,0E0],"parents":[2147483647,0,0,1,1,2,2,3,3,4,4,5,5,6,6,7,7,8,8,9,9,10,10,11,11,12,12,13,13,14,14],"right_children":[2,4,6,8,10,12,14,16,18,20,22,24,26,28,30,-1,-1,-1,-1,-1,-1,-1,-1,-1,-1,-1,-1,-1,-1,-1,-1],"split_conditions":[5E0,4.72E2,9E0,4.11E2,9E0,1.4E1,1.1E1,1E0,2E0,4.96E2,3E0,2.47E2,3.28E2,2E0,1.2E1,-1.24715105E-1,-3.4472592E-2,-2.704645E-1,-1.19095184E-1,9.728626E-2,1.0876924E-2,3.69452E-2,-1.6680606E-1,7.984987E-3,4.6547968E-2,1.0025759E-2,-1.180285E-1,-2.4109174E-2,9.723561E-2,1.6658661E-1,3.1532146E-2],"split_indices":[3,6,3,6,2,2,3,3,2,6,3,6,6,2,2,0,0,0,0,0,0,0,0,0,0,0,0,0,0,0,0],"split_type":[0,0,0,0,0,0,0,0,0,0,0,0,0,0,0,0,0,0,0,0,0,0,0,0,0,0,0,0,0,0,0],"sum_hessian":[4.1E2,1.93E2,2.17E2,1.72E2,2.1E1,1.19E2,9.8E1,1.4E2,3.2E1,1E1,1.1E1,1.11E2,8E0,6E1,3.8E1,3.1E1,1.09E2,6E0,2.6E1,7E0,3E0,7E0,4E0,4.6E1,6.5E1,4E0,4E0,8E0,5.2E1,3.1E1,7E0],"tree_param":{"num_deleted":"0","num_feature":"7","num_nodes":"31","size_leaf_vector":"1"}},{"base_weights":[-7.167531E-2,-6.7701274E-1,4.8583266E-1,-8.7192863E-1,-1.182273E-1,1.11207806E-1,6.560512E-1,-3.1461442E-1,-1.0122055E0,-5.0795305E-1,4.7227263E-1,-4.264823E-1,4.668164E-1,4.3978718E-1,9.065276E-1,7.023672E-2,-1.3106218E-1,-1.1005992E-1,2.413393E-2,-7.208448E-2,7.006745E-2,7.0724465E-2,-6.4442635E-2,6.955994E-2,-5.4897245E-2,-8.9876115E-2,7.936228E-2,-7.407444E-3,6.373357E-2,1.0494713E-1,-3.8694635E-2],"categories":[],"categories_nodes":[],"categories_segments":[],"categories_sizes":[],"default_left":[0,0,0,0,0,0,0,0,0,0,0,0,0,0,0,0,0,0,0,0,0,0,0,0,0,0,0,0,0,0,0],"id":21,"left_children":[1,3,5,7,9,11,13,15,17,19,21,23,25,27,29,-1,-1,-1,-1,-1,-1,-1,-1,-1,-1,-1,-1,-1,-1,-1,-1],"loss_changes":[1.302589E2,2.0046394E1,1.2744427E1,1.0391968E1,1.151641E1,1.2436351E1,7.0766487E0,3.0295248E1,1.2343414E1,8.224281E0,5.703626E0,3.9554071E0,1.8118176E1,7.762169E0,1.2054405E1,0E0,0E0,0E0,0E0,0E0,0E0,0E0,0E0,0E0,0E0,0E0,0E0,0E0,0E0,0E0,0E0],"parents":[2147483647,0,0,1,1,2,2,3,3,4,4,5,5,6,6,7,7,8,8,9,9,10,10,11,11,12,12,13,13,14,14],"right_children":[2,4,6,8,10,12,14,16,18,20,22,24,26,28,30,-1,-1,-1,-1,-1,-1,-1,-1,-1,-1,-1,-1,-1,-1,-1,-1],"split_conditions":[5E0,3.1E1,7E0,1.98E2,3E0,3E0,2.4E1,2.35E2,4.95E2,4.49E2,3.77E2,3.5E1,8E0,1.3E2,4.27E2,7.023672E-2,-1.3106218E-1,-1.1005992E-1,2.413393E-2,-7.208448E-2,7.006745E-2,7.0724465E-2,-6.4442635E-2,6.955994E-2,-5.4897245E-2,-8.9876115E-2,7.936228E-2,-7.407444E-3,6.373357E-2,1.0494713E-1,-3.8694635E-2],"split_indices":[3,1,3,6,3,4,1,0,6,6,6,0,1,0,6,0,0,0,0,0,0,0,0,0,0,0,0,0,0,0,0],"split_type":[0,0,0,0,0,0,0,0,0,0,0,0,0,0,0,0,0,0,0,0,0,0,0,0,0,0,0,0,0,0,0],"sum_hessian":[3.84E2,1.84E2,2E2,1.36E2,4.8E1,6.3E1,1.37E2,2.8E1,1.08E2,2.9E1,1.9E1,2.5E1,3.8E1,7.5E1,6.2E1,1.4E1,1.4E1,1.01E2,7E0,2.5E1,4E0,1.6E1,3E0,2E0,2.3E1,7E0,3.1E1,2.1E1,5.4E1,5.6E1,6E0],"tree_param":{"num_deleted":"0","num_feature":"7","num_nodes":"31","size_leaf_vector":"1"}},{"base_weights":[2.4398658E-2,-6.490434E-1,4.1029677E-1,-7.1045977E-1,4.6081135E-1,2.8265604E-1,1.171712E0,-1.0171711E0,-4.3221986E-1,6.195695E-1,-1.0308663E-2,-2.7355498E-1,3.9043543E-1,2.557641E0,7.3388547E-1,-7.3547505E-2,-1.4751004E-1,-9.9456936E-2,-1.1193676E-2,3.6195635E-3,7.290051E-2,9.709454E-3,-1.1255753E-2,-8.061554E-2,1.6620312E-2,1.0307401E-1,3.1195903E-2,7.698568E-3,3.3716953E-1,2.4738525E-1,3.4081385E-2],"categories":[],"categories_nodes":[],"categories_segments":[],"categories_sizes":[],"default_left":[0,0,0,0,0,0,0,0,0,0,0,0,0,0,0,0,0,0,0,0,0,0,0,0,0,0,0,0,0,0,0],"id":22,"left_children":[1,3,5,7,9,11,13,15,17,19,21,23,25,27,29,-1,-1,-1,-1,-1,-1,-1,-1,-1,-1,-1,-1,-1,-1,-1,-1],"loss_changes":[1.0057999E2,9.938404E0,2.3576958E1,1.0995827E1,6.047399E-1,1.28158E1,1.9360863E1,7.041893E0,1.2856666E1,3.5666466E-1,4.3874286E-2,8.331523E0,8.622734E0,1.5895531E1,1.8306963E1,0E0,0E0,0E0,0E0,0E0,0E0,0E0,0E0,0E0,0E0,0E0,0E0,0E0,0E0,0E0,0E0],"parents":[2147483647,0,0,1,1,2,2,3,3,4,4,5,5,6,6,7,7,8,8,9,9,10,10,11,11,12,12,13,13,14,14],"right_children":[2,4,6,8,10,12,14,16,18,20,22,24,26,28,30,-1,-1,-1,-1,-1,-1,-1,-1,-1,-1,-1,-1,-1,-1,-1,-1],"split_conditions":[4E0,4.95E2,1.1E1,8E0,3E1,1.79E2,3E0,3.88E2,1E0,9E0,3.7E1,7E0,1.98E2,1.9E1,1.33E2,-7.3547505E-2,-1.4751004E-1,-9.9456936E-2,-1.1193676E-2,3.6195635E-3,7.290051E-2,9.709454E-3,-1.1255753E-2,-8.061554E-2,1.6620312E-2,1.0307401E-1,3.1195903E-2,7.698568E-3,3.3716953E-1,2.4738525E-1,3.4081385E-2],"split_indices":[3,6,3,2,1,6,2,6,3,1,1,3,6,1,6,0,0,0,0,0,0,0,0,0,0,0,0,0,0,0,0],"split_type":[0,0,0,0,0,0,0,0,0,0,0,0,0,0,0,0,0,0,0,0,0,0,0,0,0,0,0,0,0,0,0],"sum_hessian":[3.85E2,1.4E2,2.45E2,1.33E2,7E0,2.11E2,3.4E1,6.2E1,7.1E1,5E0,2E0,3.4E1,1.77E2,7E0,2.7E1,4E1,2.2E1,2.5E1,4.6E1,1E0,4E0,1E0,1E0,1.5E1,1.9E1,1.8E1,1.59E2,2E0,5E0,4E0,2.3E1],"tree_param":{"num_deleted":"0","num_feature":"7","num_nodes":"31","size_leaf_vector":"1"}},{"base_weights":[3.7061043E-2,-5.992813E-1,4.2019752E-1,-6.7060465E-1,2.3686041E-1,1.6039914E-1,8.3167297E-1,-8.462845E-1,-3.4351182E-1,4.696727E-1,-1.2784436E-1,4.292857E-1,3.0651428E-2,2.7836645E-1,1.0027386E0,-4.859824E-2,-1.18858054E-1,-1.1491972E-1,-1.2432011E-2,8.2777105E-2,9.563514E-3,1.1026553E-2,1.14018954E-1,-1.4602356E-1,1.6319927E-2,1.4299813E-1,-2.4892718E-2,1.8536451E-1,7.977318E-2],"categories":[],"categories_nodes":[],"categories_segments":[],"categories_sizes":[],"default_left":[0,0,0,0,0,0,0,0,0,0,0,0,0,0,0,0,0,0,0,0,0,0,0,0,0,0,0,0,0],"id":23,"left_children":[1,3,5,7,9,11,13,15,17,19,-1,21,23,25,27,-1,-1,-1,-1,-1,-1,-1,-1,-1,-1,-1,-1,-1,-1],"loss_changes":[1.01187485E2,9.4621315E0,2.7553871E1,7.984047E0,5.1866083E0,5.5688286E0,9.186043E0,1.0892059E1,9.04031E0,1.5281429E0,0E0,1.1667494E1,2.1778215E1,1.5536942E1,1.1778854E1,0E0,0E0,0E0,0E0,0E0,0E0,0E0,0E0,0E0,0E0,0E0,0E0,0E0,0E0],"parents":[2147483647,0,0,1,1,2,2,3,3,4,4,5,5,6,6,7,7,8,8,9,9,11,11,12,12,13,13,14,14],"right_children":[2,4,6,8,10,12,14,16,18,20,-1,22,24,26,28,-1,-1,-1,-1,-1,-1,-1,-1,-1,-1,-1,-1,-1,-1],"split_conditions":[4E0,4.73E2,9E0,3.26E2,1.4E1,1.71E2,1.51E2,1.75E2,2.41E2,3E0,-1.2784436E-1,1.3E2,1.88E2,1.94E2,2.31E2,-4.859824E-2,-1.18858054E-1,-1.1491972E-1,-1.2432011E-2,8.2777105E-2,9.563514E-3,1.1026553E-2,1.14018954E-1,-1.4602356E-1,1.6319927E-2,1.4299813E-1,-2.4892718E-2,1.8536451E-1,7.977318E-2],"split_indices":[3,6,3,0,2,0,0,0,6,4,0,0,0,6,0,0,0,0,0,0,0,0,0,0,0,0,0,0,0],"split_type":[0,0,0,0,0,0,0,0,0,0,0,0,0,0,0,0,0,0,0,0,0,0,0,0,0,0,0,0,0],"sum_hessian":[4.13E2,1.55E2,2.58E2,1.43E2,1.2E1,1.59E2,9.9E1,9.2E1,5.1E1,1.1E1,1E0,5.1E1,1.08E2,2.4E1,7.5E1,4.6E1,4.6E1,1E1,4.1E1,5E0,6E0,3.6E1,1.5E1,8E0,1E2,7E0,1.7E1,1.3E1,6.2E1],"tree_param":{"num_deleted":"0","num_feature":"7","num_nodes":"29","size_leaf_vector":"1"}},{"base_weights":[-2.7839426E-2,-4.3603837E-1,4.7487777E-1,-7.5177103E-1,-2.6147205E-1,1.1395597E0,4.0561616E-1,-8.1283647E-1,3.3899134E-1,-8.7448454E-1,-1.5406778E-1,5.280301E-1,2.9950237E0,5.505567E-1,1.0861907E-1,-1.7142793E-2,-9.404441E-2,2.9604079E-3,4.0893715E-2,3.6872562E-2,-1.479231E-1,1.4496017E-1,-2.730591E-2,1.3182025E-1,-5.742142E-3,3.407161E-1,8.793058E-2,4.981672E-2,3.2352853E-1,-1.2025787E-1,2.3026755E-2],"categories":[],"categories_nodes":[],"categories_segments":[],"categories_sizes":[],"default_left":[0,0,0,0,0,0,0,0,0,0,0,0,0,0,0,0,0,0,0,0,0,0,0,0,0,0,0,0,0,0,0],"id":24,"left_children":[1,3,5,7,9,11,13,15,17,19,21,23,25,27,29,-1,-1,-1,-1,-1,-1,-1,-1,-1,-1,-1,-1,-1,-1,-1,-1],"loss_changes":[8.516344E1,1.2425068E1,8.100647E0,5.670788E0,9.675455E0,1.7707947E1,7.258177E0,6.141121E0,9.609544E-2,1.7085623E1,2.4821135E1,6.5521994E0,4.919281E-1,1.4422569E1,9.368712E0,0E0,0E0,0E0,0E0,0E0,0E0,0E0,0E0,0E0,0E0,0E0,0E0,0E0,0E0,0E0,0E0],"parents":[2147483647,0,0,1,1,2,2,3,3,4,4,5,5,6,6,7,7,8,8,9,9,10,10,11,11,12,12,13,13,14,14],"right_children":[2,4,6,8,10,12,14,16,18,20,22,24,26,28,30,-1,-1,-1,-1,-1,-1,-1,-1,-1,-1,-1,-1,-1,-1,-1,-1],"split_conditions":[6E0,2E0,1.33E2,4.95E2,1.6E2,1.28E2,3.28E2,7.3E1,9E0,1.1E2,1.96E2,1.32E2,3.87E2,3.26E2,1.5E2,-1.7142793E-2,-9.404441E-2,2.9604079E-3,4.0893715E-2,3.6872562E-2,-1.479231E-1,1.4496017E-1,-2.730591E-2,1.3182025E-1,-5.742142E-3,3.407161E-1,8.793058E-2,4.981672E-2,3.2352853E-1,-1.2025787E-1,2.3026755E-2],"split_indices":[3,3,6,6,6,6,0,0,1,6,6,0,0,0,6,0,0,0,0,0,0,0,0,0,0,0,0,0,0,0,0],"split_type":[0,0,0,0,0,0,0,0,0,0,0,0,0,0,0,0,0,0,0,0,0,0,0,0,0,0,0,0,0,0,0],"sum_hessian":[4.13E2,2.28E2,1.85E2,8E1,1.48E2,1.6E1,1.69E2,7.6E1,4E0,2.1E1,1.27E2,1.3E1,3E0,1.13E2,5.6E1,1.3E1,6.3E1,1E0,3E0,7E0,1.4E1,8E0,1.19E2,5E0,8E0,2E0,1E0,1.12E2,1E0,4E0,5.2E1],"tree_param":{"num_deleted":"0","num_feature":"7","num_nodes":"31","size_leaf_vector":"1"}},{"base_weights":[-1.3543834E-2,-9.2738926E-1,1.4182652E-2,-1.7485409E0,1.8518591E-1,5.270745E-1,-2.6273998E-2,-1.9896141E0,-1.5105081E-2,1.2887172E-1,-2.9326382E-1,1.4587605E0,1.6432172E-1,-2.7243254E-1,8.248456E-2,-2.1606822E-1,-5.6713678E-2,2.2721883E-2,-7.1599185E-2,1.0258627E-2,1.6378444E-1,8.331769E-2,-1.3857252E-2,-3.613899E-3,-8.694213E-2,2.3565862E-2,-2.0265494E-2],"categories":[],"categories_nodes":[],"categories_segments":[],"categories_sizes":[],"default_left":[0,0,0,0,0,0,0,0,0,0,0,0,0,0,0,0,0,0,0,0,0,0,0,0,0,0,0],"id":25,"left_children":[1,3,5,7,9,11,13,15,-1,-1,17,19,21,23,25,-1,-1,-1,-1,-1,-1,-1,-1,-1,-1,-1,-1],"loss_changes":[1.0325605E1,1.12869215E1,8.2308035E0,2.3952522E0,3.54584E0,9.561474E0,9.874512E0,2.3464012E-1,0E0,0E0,1.2627999E0,1.7749329E0,4.5724883E0,1.5908878E1,1.12288065E1,0E0,0E0,0E0,0E0,0E0,0E0,0E0,0E0,0E0,0E0,0E0,0E0],"parents":[2147483647,0,0,1,1,2,2,3,3,4,4,5,5,6,6,7,7,10,10,11,11,12,12,13,13,14,14],"right_children":[2,4,6,8,10,12,14,16,-1,-1,18,20,22,24,26,-1,-1,-1,-1,-1,-1,-1,-1,-1,-1,-1,-1],"split_conditions":[1.3E1,4E0,5.2E1,1.1E1,1.1E2,1.93E2,2.35E2,2.9E1,-1.5105081E-2,1.2887172E-1,5E0,1.7E1,2E0,1.98E2,4.06E2,-2.1606822E-1,-5.6713678E-2,2.2721883E-2,-7.1599185E-2,1.0258627E-2,1.6378444E-1,8.331769E-2,-1.3857252E-2,-3.613899E-3,-8.694213E-2,2.3565862E-2,-2.0265494E-2],"split_indices":[0,4,0,0,6,6,6,1,0,0,4,0,4,6,6,0,0,0,0,0,0,0,0,0,0,0,0],"split_type":[0,0,0,0,0,0,0,0,0,0,0,0,0,0,0,0,0,0,0,0,0,0,0,0,0,0,0],"sum_hessian":[4.06E2,1.1E1,3.95E2,6E0,5E0,2.8E1,3.67E2,5E0,1E0,1E0,4E0,7E0,2.1E1,1.12E2,2.55E2,4E0,1E0,2E0,2E0,1E0,6E0,6E0,1.5E1,8.1E1,3.1E1,1.66E2,8.9E1],"tree_param":{"num_deleted":"0","num_feature":"7","num_nodes":"27","size_leaf_vector":"1"}},{"base_weights":[-7.3215845E-3,-7.020305E-1,1.5445512E-2,-1.6148134E0,3.1104258E-1,-2.6078358E-1,6.4434566E-2,-1.8361163E0,-1.4349818E-2,1.22428134E-1,-4.521075E-2,7.1860805E-2,-1.040946E0,9.888737E-1,-4.220953E-2,-1.9878277E-1,-5.3878E-2,4.3337822E-2,-6.682592E-2,6.174452E-2,-1.851406E-2,-1.6449623E-1,8.584882E-2,2.7359579E-2,1.3501666E-1,-7.830685E-2,6.0230736E-3],"categories":[],"categories_nodes":[],"categories_segments":[],"categories_sizes":[],"default_left":[0,0,0,0,0,0,0,0,0,0,0,0,0,0,0,0,0,0,0,0,0,0,0,0,0,0,0],"id":26,"left_children":[1,3,5,7,9,11,13,15,-1,-1,17,19,21,23,25,-1,-1,-1,-1,-1,-1,-1,-1,-1,-1,-1,-1],"loss_changes":[6.4797935E0,1.2523583E1,5.389087E0,2.0157642E0,2.332761E0,1.5645803E1,3.3363796E1,1.0992241E-1,0E0,0E0,2.0787134E0,6.1436E0,2.206338E1,8.675472E0,2.3118876E1,0E0,0E0,0E0,0E0,0E0,0E0,0E0,0E0,0E0,0E0,0E0,0E0],"parents":[2147483647,0,0,1,1,2,2,3,3,4,4,5,5,6,6,7,7,10,10,11,11,12,12,13,13,14,14],"right_children":[2,4,6,8,10,12,14,16,-1,-1,18,20,22,24,26,-1,-1,-1,-1,-1,-1,-1,-1,-1,-1,-1,-1],"split_conditions":[1.3E1,4E0,1.66E2,1.1E1,1.1E2,1.43E2,1.98E2,2.9E1,-1.4349818E-2,1.22428134E-1,5E0,1.82E2,3.5E1,1.85E2,2.41E2,-1.9878277E-1,-5.3878E-2,4.3337822E-2,-6.682592E-2,6.174452E-2,-1.851406E-2,-1.6449623E-1,8.584882E-2,2.7359579E-2,1.3501666E-1,-7.830685E-2,6.0230736E-3],"split_indices":[0,4,6,0,6,6,6,1,0,0,4,0,1,6,6,0,0,0,0,0,0,0,0,0,0,0,0],"split_type":[0,0,0,0,0,0,0,0,0,0,0,0,0,0,0,0,0,0,0,0,0,0,0,0,0,0,0],"sum_hessian":[4.08E2,1.2E1,3.96E2,6E0,6E0,5.9E1,3.37E2,5E0,1E0,1E0,5E0,4.2E1,1.7E1,3.4E1,3.03E2,4E0,1E0,3E0,2E0,1.3E1,2.9E1,1.3E1,4E0,1.2E1,2.2E1,3.6E1,2.67E2],"tree_param":{"num_deleted":"0","num_feature":"7","num_nodes":"27","size_leaf_vector":"1"}},{"base_weights":[-5.398905E-3,-3.851894E-1,4.8537198E-1,-7.2739595E-1,-1.7956905E-1,1.8532205E-1,7.1755767E-1,-5.70888E-1,-1.3290527E0,-2.7386406E-1,3.9026162E-1,1.1310735E-2,6.6538614E-1,1.0209639E-1,8.898404E-1,-7.410257E-2,3.1312284E-4,-4.0113688E-2,-1.7987216E-1,-1.6209003E-2,-1.3128953E-1,1.0194536E-1,-4.0379494E-2,8.745136E-2,-1.4124097E-2,2.3328257E-1,2.5787815E-2,6.315318E-2,-5.3288143E-2,1.5229127E-1,6.6015765E-2],"categories":[],"categories_nodes":[],"categories_segments":[],"categories_sizes":[],"default_left":[0,0,0,0,0,0,0,0,0,0,0,0,0,0,0,0,0,0,0,0,0,0,0,0,0,0,0,0,0,0,0],"id":27,"left_children":[1,3,5,7,9,11,13,15,17,19,21,23,25,27,29,-1,-1,-1,-1,-1,-1,-1,-1,-1,-1,-1,-1,-1,-1,-1,-1],"loss_changes":[7.604774E1,1.6053246E1,1.2267803E1,7.3393707E0,7.8980446E0,6.5918646E0,1.0512482E1,6.838684E0,6.687292E0,1.4304282E1,1.0903545E1,7.892819E0,1.3667806E1,8.068665E0,1.0336296E1,0E0,0E0,0E0,0E0,0E0,0E0,0E0,0E0,0E0,0E0,0E0,0E0,0E0,0E0,0E0,0E0],"parents":[2147483647,0,0,1,1,2,2,3,3,4,4,5,5,6,6,7,7,8,8,9,9,10,10,11,11,12,12,13,13,14,14],"right_children":[2,4,6,8,10,12,14,16,18,20,22,24,26,28,30,-1,-1,-1,-1,-1,-1,-1,-1,-1,-1,-1,-1,-1,-1,-1,-1],"split_conditions":[6E0,2E0,9E0,6E0,1.3E1,2.9E1,1.3E1,3.3E1,7.3E1,1.2E1,2.2E1,3.5E1,3.1E1,2.27E2,1.8E1,-7.410257E-2,3.1312284E-4,-4.0113688E-2,-1.7987216E-1,-1.6209003E-2,-1.3128953E-1,1.0194536E-1,-4.0379494E-2,8.745136E-2,-1.4124097E-2,2.3328257E-1,2.5787815E-2,6.315318E-2,-5.3288143E-2,1.5229127E-1,6.6015765E-2],"split_indices":[3,3,3,4,2,1,1,1,0,2,1,0,1,0,1,0,0,0,0,0,0,0,0,0,0,0,0,0,0,0,0],"split_type":[0,0,0,0,0,0,0,0,0,0,0,0,0,0,0,0,0,0,0,0,0,0,0,0,0,0,0,0,0,0,0],"sum_hessian":[4.06E2,2.29E2,1.77E2,8.5E1,1.44E2,7.8E1,9.9E1,6.9E1,1.6E1,1.24E2,2E1,5.8E1,2E1,2.2E1,7.7E1,5.3E1,1.6E1,6E0,1E1,1.13E2,1.1E1,1.1E1,9E0,8E0,5E1,3E0,1.7E1,1.2E1,1E1,1.9E1,5.8E1],"tree_param":{"num_deleted":"0","num_feature":"7","num_nodes":"31","size_leaf_vector":"1"}},{"base_weights":[7.4850544E-3,-2.734984E-1,5.9474754E-1,-4.9041474E-1,-7.929322E-3,-1.4252459E-1,6.558471E-1,-3.829174E-1,-9.1838986E-1,2.705389E-1,-3.0909282E-1,-8.9587903E-1,2.165047E-1,1.4864999E0,5.3552014E-1,-5.296967E-2,-1.2251562E-2,-1.1190019E-1,7.055845E-3,-8.112749E-3,9.775593E-2,-8.6172834E-2,-3.8573735E-3,-2.2698546E-2,-1.19249485E-1,5.649038E-2,2.2222836E-1,8.665035E-2,2.608692E-2],"categories":[],"categories_nodes":[],"categories_segments":[],"categories_sizes":[],"default_left":[0,0,0,0,0,0,0,0,0,0,0,0,0,0,0,0,0,0,0,0,0,0,0,0,0,0,0,0,0],"id":28,"left_children":[1,3,5,7,9,11,13,15,17,19,21,23,-1,25,27,-1,-1,-1,-1,-1,-1,-1,-1,-1,-1,-1,-1,-1,-1],"loss_changes":[6.781718E1,1.6010654E1,6.0847282E0,6.6872787E0,1.0650544E1,2.1062231E1,1.1497787E1,4.6745815E0,6.0308037E0,1.6489239E1,9.086164E0,1.5149608E0,0E0,8.916054E0,9.682592E0,0E0,0E0,0E0,0E0,0E0,0E0,0E0,0E0,0E0,0E0,0E0,0E0,0E0,0E0],"parents":[2147483647,0,0,1,1,2,2,3,3,4,4,5,5,6,6,7,7,8,8,9,9,10,10,11,11,13,13,14,14],"right_children":[2,4,6,8,10,12,14,16,18,20,22,24,-1,26,28,-1,-1,-1,-1,-1,-1,-1,-1,-1,-1,-1,-1,-1,-1],"split_conditions":[8E0,4E0,1E0,1.2E1,3.13E2,3.5E2,3E0,8E0,4.72E2,2.47E2,5E0,2.69E2,2.165047E-1,2.17E2,1E0,-5.296967E-2,-1.2251562E-2,-1.1190019E-1,7.055845E-3,-8.112749E-3,9.775593E-2,-8.6172834E-2,-3.8573735E-3,-2.2698546E-2,-1.19249485E-1,5.649038E-2,2.2222836E-1,8.665035E-2,2.608692E-2],"split_indices":[3,3,2,2,6,6,2,2,6,6,3,6,0,6,5,0,0,0,0,0,0,0,0,0,0,0,0,0,0],"split_type":[0,0,0,0,0,0,0,0,0,0,0,0,0,0,0,0,0,0,0,0,0,0,0,0,0,0,0,0,0],"sum_hessian":[4.09E2,2.77E2,1.32E2,1.52E2,1.25E2,1E1,1.22E2,1.23E2,2.9E1,6.5E1,6E1,8E0,2E0,1.4E1,1.08E2,7.8E1,4.5E1,2.4E1,5E0,4.4E1,2.1E1,1.9E1,4.1E1,3E0,5E0,7E0,7E0,4.8E1,6E1],"tree_param":{"num_deleted":"0","num_feature":"7","num_nodes":"29","size_leaf_vector":"1"}},{"base_weights":[2.6100172E-2,-5.049408E-1,2.3515365E-1,-2.6442029E-2,-6.115582E-1,8.168508E-2,5.117922E-1,4.7808993E-1,-1.1758804E0,-9.6295893E-1,-3.9638183E-1,-9.315386E-2,3.1096458E-1,-6.746572E-2,6.1787844E-1,-1.9562196E-3,1.5768372E-1,5.9306998E-2,-2.0020747E-1,-1.9838989E-2,-1.14701584E-1,-1.5602714E-1,-2.1322148E-2,2.9404853E-2,-3.963106E-2,5.7317633E-2,4.759208E-3,5.4569848E-2,-3.684257E-2,6.785362E-2,-5.247472E-2],"categories":[],"categories_nodes":[],"categories_segments":[],"categories_sizes":[],"default_left":[0,0,0,0,0,0,0,0,0,0,0,0,0,0,0,0,0,0,0,0,0,0,0,0,0,0,0,0,0,0,0],"id":29,"left_children":[1,3,5,7,9,11,13,15,17,19,21,23,25,27,29,-1,-1,-1,-1,-1,-1,-1,-1,-1,-1,-1,-1,-1,-1,-1,-1],"loss_changes":[4.5191223E1,5.8507004E0,1.2355146E1,1.3320602E1,6.725933E0,7.605407E0,6.432623E0,8.779547E0,1.1417848E1,4.697796E0,1.2458021E1,1.27939E1,5.63559E0,3.3381934E0,6.4552574E0,0E0,0E0,0E0,0E0,0E0,0E0,0E0,0E0,0E0,0E0,0E0,0E0,0E0,0E0,0E0,0E0],"parents":[2147483647,0,0,1,1,2,2,3,3,4,4,5,5,6,6,7,7,8,8,9,9,10,10,11,11,12,12,13,13,14,14],"right_children":[2,4,6,8,10,12,14,16,18,20,22,24,26,28,30,-1,-1,-1,-1,-1,-1,-1,-1,-1,-1,-1,-1,-1,-1,-1,-1],"split_conditions":[3E0,1.1E1,9E0,3.29E2,1E0,2.4E1,1.2E1,3.18E2,1E0,1.7E1,1.6E1,1.2E1,1E0,7E0,4.8E2,-1.9562196E-3,1.5768372E-1,5.9306998E-2,-2.0020747E-1,-1.9838989E-2,-1.14701584E-1,-1.5602714E-1,-2.1322148E-2,2.9404853E-2,-3.963106E-2,5.7317633E-2,4.759208E-3,5.4569848E-2,-3.684257E-2,6.785362E-2,-5.247472E-2],"split_indices":[3,1,3,6,3,1,1,6,3,1,1,1,5,1,6,0,0,0,0,0,0,0,0,0,0,0,0,0,0,0,0],"split_type":[0,0,0,0,0,0,0,0,0,0,0,0,0,0,0,0,0,0,0,0,0,0,0,0,0,0,0,0,0,0,0],"sum_hessian":[4.05E2,1.14E2,2.91E2,2.1E1,9.3E1,1.88E2,1.03E2,1.5E1,6E0,3.4E1,5.9E1,1.07E2,8.1E1,1.6E1,8.7E1,1.1E1,4E0,2E0,4E0,7E0,2.7E1,7E0,5.2E1,4.7E1,6E1,4E1,4.1E1,5E0,1.1E1,8.3E1,4E0],"tree_param":{"num_deleted":"0","num_feature":"7","num_nodes":"31","size_leaf_vector":"1"}},{"base_weights":[-1.42198745E-2,-5.1346415E-1,1.8974687E-1,-3.784676E-1,-1.1425242E0,1.0766924E-1,7.182581E-1,-4.382876E-1,8.09878E-2,3.8369486E-1,-1.4344273E0,1.9221936E-1,-1.8413953E-1,9.92842E-1,-1.4986105E-1,-5.5381663E-2,2.5318448E-2,1.391583E-1,-1.3199846E-1,7.6711535E-2,-1.6199684E-1,-6.465249E-2,2.2275155E-2,-9.130261E-2,1.4322209E-3,1.583312E-1,5.440375E-2,5.4597687E-2,-5.26074E-2],"categories":[],"categories_nodes":[],"categories_segments":[],"categories_sizes":[],"default_left":[0,0,0,0,0,0,0,0,0,0,0,0,0,0,0,0,0,0,0,0,0,0,0,0,0,0,0,0,0],"id":30,"left_children":[1,3,5,7,9,11,13,15,-1,17,19,21,23,25,27,-1,-1,-1,-1,-1,-1,-1,-1,-1,-1,-1,-1,-1,-1],"loss_changes":[4.0727287E1,9.418421E0,1.2242286E1,7.2503834E0,9.460543E0,6.129494E0,9.206907E0,7.5695305E0,0E0,8.70534E0,8.186806E0,5.060887E0,8.113818E0,6.823784E0,2.9050567E0,0E0,0E0,0E0,0E0,0E0,0E0,0E0,0E0,0E0,0E0,0E0,0E0,0E0,0E0],"parents":[2147483647,0,0,1,1,2,2,3,3,4,4,5,5,6,6,7,7,9,9,10,10,11,11,12,12,13,13,14,14],"right_children":[2,4,6,8,10,12,14,16,-1,18,20,22,24,26,28,-1,-1,-1,-1,-1,-1,-1,-1,-1,-1,-1,-1,-1,-1],"split_conditions":[3E0,6E0,1.1E1,4.63E2,8E0,4.03E2,3.3E1,4.62E2,8.09878E-2,3.28E2,1.43E2,1.7E1,1.2E2,2.45E2,1.54E2,-5.5381663E-2,2.5318448E-2,1.391583E-1,-1.3199846E-1,7.6711535E-2,-1.6199684E-1,-6.465249E-2,2.2275155E-2,-9.130261E-2,1.4322209E-3,1.583312E-1,5.440375E-2,5.4597687E-2,-5.26074E-2],"split_indices":[3,4,3,0,1,6,1,6,0,6,6,0,0,6,6,0,0,0,0,0,0,0,0,0,0,0,0,0,0],"split_type":[0,0,0,0,0,0,0,0,0,0,0,0,0,0,0,0,0,0,0,0,0,0,0,0,0,0,0,0,0],"sum_hessian":[3.98E2,1.15E2,2.83E2,9.6E1,1.9E1,2.46E2,3.7E1,9.2E1,4E0,3E0,1.6E1,1.91E2,5.5E1,2.8E1,9E0,7.9E1,1.3E1,2E0,1E0,1E0,1.5E1,6E0,1.85E2,1.1E1,4.4E1,1.1E1,1.7E1,3E0,6E0],"tree_param":{"num_deleted":"0","num_feature":"7","num_nodes":"29","size_leaf_vector":"1"}},{"base_weights":[5.7232655E-3,1.01475745E-1,-2.8542152E-1,4.838234E-2,7.480351E-1,-5.94067E-1,2.3379128E-1,9.018618E-3,9.333146E-1,1.129773E0,1.3879837E-1,-8.746693E-1,-3.290041E-1,1.0516872E0,-9.587471E-2,-7.912069E-3,3.1374604E-2,-3.3305034E-2,1.6081284E-1,-2.8050771E-2,1.3881956E-1,-3.8075324E-2,5.48625E-2,1.4405705E-2,-9.525804E-2,-5.4082214E-3,-1.0866668E-1,1.812253E-1,1.15840435E-2,-5.174027E-2,2.5260895E-2],"categories":[],"categories_nodes":[],"categories_segments":[],"categories_sizes":[],"default_left":[0,0,0,0,0,0,0,0,0,0,0,0,0,0,0,0,0,0,0,0,0,0,0,0,0,0,0,0,0,0,0],"id":31,"left_children":[1,3,5,7,9,11,13,15,17,19,21,23,25,27,29,-1,-1,-1,-1,-1,-1,-1,-1,-1,-1,-1,-1,-1,-1,-1,-1],"loss_changes":[1.126373E1,1.0399531E1,1.6164156E1,9.8148365E0,5.1922703E0,4.397999E0,1.0346865E1,7.3034663E0,1.0790313E1,5.4916744E0,2.338152E0,2.5183296E0,7.023365E0,7.6195717E0,4.243778E0,0E0,0E0,0E0,0E0,0E0,0E0,0E0,0E0,0E0,0E0,0E0,0E0,0E0,0E0,0E0,0E0],"parents":[2147483647,0,0,1,1,2,2,3,3,4,4,5,5,6,6,7,7,8,8,9,9,10,10,11,11,12,12,13,13,14,14],"right_children":[2,4,6,8,10,12,14,16,18,20,22,24,26,28,30,-1,-1,-1,-1,-1,-1,-1,-1,-1,-1,-1,-1,-1,-1,-1,-1],"split_conditions":[4.02E2,3.7E1,4.75E2,3.86E2,6E0,2.4E1,4.87E2,6E0,3E0,1E0,2.11E2,2.5E1,3.6E1,1.9E1,4E0,-7.912069E-3,3.1374604E-2,-3.3305034E-2,1.6081284E-1,-2.8050771E-2,1.3881956E-1,-3.8075324E-2,5.48625E-2,1.4405705E-2,-9.525804E-2,-5.4082214E-3,-1.0866668E-1,1.812253E-1,1.15840435E-2,-5.174027E-2,2.5260895E-2],"split_indices":[6,1,6,6,4,1,6,4,4,4,6,0,1,1,4,0,0,0,0,0,0,0,0,0,0,0,0,0,0,0,0],"split_type":[0,0,0,0,0,0,0,0,0,0,0,0,0,0,0,0,0,0,0,0,0,0,0,0,0,0,0,0,0,0,0],"sum_hessian":[4.02E2,3.03E2,9.9E1,2.81E2,2.2E1,6.2E1,3.7E1,2.7E2,1.1E1,1.3E1,9E0,2.9E1,3.3E1,1E1,2.7E1,2.1E2,6E1,4E0,7E0,2E0,1.1E1,4E0,5E0,2E0,2.7E1,2.5E1,8E0,5E0,5E0,1.2E1,1.5E1],"tree_param":{"num_deleted":"0","num_feature":"7","num_nodes":"31","size_leaf_vector":"1"}},{"base_weights":[-5.5476087E-3,-2.1097966E-1,3.5434037E-1,-1.1825233E-1,-5.561356E-1,4.656936E-1,-5.1194943E-2,-9.2245233E-1,-5.960773E-2,-1.2229024E0,-1.7026132E-1,7.992849E-2,6.65053E-1,-5.544152E-1,4.5503682E-1,-2.1810125E-1,-5.3094126E-2,1.4891838E-2,-1.951747E-2,1.1286472E-2,-1.6756825E-1,1.4118466E-2,-8.049187E-2,7.804003E-2,-2.3683228E-2,-5.7828326E-2,7.594275E-2,-2.3908801E-2,-9.707273E-2,9.1813974E-2,-8.40038E-2],"categories":[],"categories_nodes":[],"categories_segments":[],"categories_sizes":[],"default_left":[0,0,0,0,0,0,0,0,0,0,0,0,0,0,0,0,0,0,0,0,0,0,0,0,0,0,0,0,0,0,0],"id":32,"left_children":[1,3,5,7,9,11,13,15,17,19,21,23,25,27,29,-1,-1,-1,-1,-1,-1,-1,-1,-1,-1,-1,-1,-1,-1,-1,-1],"loss_changes":[3.0313162E1,8.287641E0,6.7523327E0,9.707546E0,1.3942638E1,8.944834E0,8.6589E0,5.7403746E0,5.5133E0,1.2285297E1,7.229456E0,9.281985E0,9.474289E0,1.999577E0,1.0967071E1,0E0,0E0,0E0,0E0,0E0,0E0,0E0,0E0,0E0,0E0,0E0,0E0,0E0,0E0,0E0,0E0],"parents":[2147483647,0,0,1,1,2,2,3,3,4,4,5,5,6,6,7,7,8,8,9,9,10,10,11,11,12,12,13,13,14,14],"right_children":[2,4,6,8,10,12,14,16,18,20,22,24,26,28,30,-1,-1,-1,-1,-1,-1,-1,-1,-1,-1,-1,-1,-1,-1,-1,-1],"split_conditions":[7E0,6E0,3.91E2,1E0,3E0,1.4E2,4.49E2,4.8E1,7E0,7.3E1,2.82E2,5.6E1,1E0,6E0,1E1,-2.1810125E-1,-5.3094126E-2,1.4891838E-2,-1.951747E-2,1.1286472E-2,-1.6756825E-1,1.4118466E-2,-8.049187E-2,7.804003E-2,-2.3683228E-2,-5.7828326E-2,7.594275E-2,-2.3908801E-2,-9.707273E-2,9.1813974E-2,-8.40038E-2],"split_indices":[3,4,0,2,3,0,0,0,2,0,0,0,2,4,2,0,0,0,0,0,0,0,0,0,0,0,0,0,0,0,0],"split_type":[0,0,0,0,0,0,0,0,0,0,0,0,0,0,0,0,0,0,0,0,0,0,0,0,0,0,0,0,0,0,0],"sum_hessian":[4.08E2,2.6E2,1.48E2,2.06E2,5.4E1,1.16E2,3.2E1,1.3E1,1.93E2,1.9E1,3.5E1,4E1,7.6E1,1.6E1,1.6E1,2E0,1.1E1,7.6E1,1.17E2,5E0,1.4E1,2.4E1,1.1E1,1.2E1,2.8E1,5E0,7.1E1,1E1,6E0,1.2E1,4E0],"tree_param":{"num_deleted":"0","num_feature":"7","num_nodes":"31","size_leaf_vector":"1"}},{"base_weights":[-3.0835639E-3,-2.5459278E-1,7.495257E-2,5.957476E-1,-5.0737214E-1,6.8778765E-1,1.00537725E-2,1.5359847E-1,3.6644778E-1,-1.5285598E-1,-8.6749E-1,3.3921057E-1,1.734857E0,-6.587286E-1,5.6674037E-2,2.0110775E-2,1.1812254E-1,6.4720646E-2,-3.5439286E-2,-3.486295E-2,-1.4942764E-1,1.5235429E-1,8.538359E-3,-1.1253357E-3,2.027751E-1,-1.5408783E-1,-3.7957344E-2,-2.0649498E-2,1.5384418E-2],"categories":[],"categories_nodes":[],"categories_segments":[],"categories_sizes":[],"default_left":[0,0,0,0,0,0,0,0,0,0,0,0,0,0,0,0,0,0,0,0,0,0,0,0,0,0,0,0,0],"id":33,"left_children":[1,3,5,7,9,11,13,-1,15,17,19,21,23,25,27,-1,-1,-1,-1,-1,-1,-1,-1,-1,-1,-1,-1,-1,-1],"loss_changes":[7.791298E0,2.0507427E1,1.2044081E1,4.180258E0,9.187134E0,9.996063E0,8.611506E0,0E0,2.3220384E0,6.3565645E0,1.1186779E1,6.7840705E0,3.6027946E0,3.8477426E0,6.6293874E0,0E0,0E0,0E0,0E0,0E0,0E0,0E0,0E0,0E0,0E0,0E0,0E0,0E0,0E0],"parents":[2147483647,0,0,1,1,2,2,3,3,4,4,5,5,6,6,8,8,9,9,10,10,11,11,12,12,13,13,14,14],"right_children":[2,4,6,8,10,12,14,-1,16,18,20,22,24,26,28,-1,-1,-1,-1,-1,-1,-1,-1,-1,-1,-1,-1,-1,-1],"split_conditions":[1.28E2,1.96E2,1.67E2,2E0,7E0,1.59E2,1.88E2,1.5359847E-1,1.3E1,2.5E1,6.6E1,2E0,8E0,2E0,4E0,2.0110775E-2,1.1812254E-1,6.4720646E-2,-3.5439286E-2,-3.486295E-2,-1.4942764E-1,1.5235429E-1,8.538359E-3,-1.1253357E-3,2.027751E-1,-1.5408783E-1,-3.7957344E-2,-2.0649498E-2,1.5384418E-2],"split_indices":[0,6,0,2,2,0,0,0,2,0,0,2,1,2,2,0,0,0,0,0,0,0,0,0,0,0,0,0,0],"split_type":[0,0,0,0,0,0,0,0,0,0,0,0,0,0,0,0,0,0,0,0,0,0,0,0,0,0,0,0,0],"sum_hessian":[3.95E2,9.3E1,3.02E2,2.1E1,7.2E1,2.8E1,2.74E2,3E0,1.8E1,3.7E1,3.5E1,2.2E1,6E0,1.7E1,2.57E2,1.6E1,2E0,7E0,3E1,2E1,1.5E1,3E0,1.9E1,1E0,5E0,3E0,1.4E1,6.9E1,1.88E2],"tree_param":{"num_deleted":"0","num_feature":"7","num_nodes":"29","size_leaf_vector":"1"}},{"base_weights":[2.49309E-2,-2.7665904E-1,3.571944E-1,-3.5210943E-1,3.0703378E-1,4.5590892E-1,-1.3211653E-1,-1.2416654E0,-3.2514375E-1,7.354992E-1,-3.6636773E-1,4.0369496E-1,1.2580806E0,-3.1423673E-1,5.632038E-1,-1.586486E-1,6.880808E-3,-2.2740556E-2,-5.088809E-2,1.7339544E-1,3.4138918E-2,9.2154015E-3,-1.07718885E-1,4.8688166E-2,1.5943721E-3,2.0463923E-1,-2.3890687E-2,-4.9825978E-2,3.822167E-2,-1.3322092E-2,1.1188276E-1],"categories":[],"categories_nodes":[],"categories_segments":[],"categories_sizes":[],"default_left":[0,0,0,0,0,0,0,0,0,0,0,0,0,0,0,0,0,0,0,0,0,0,0,0,0,0,0,0,0,0,0],"id":34,"left_children":[1,3,5,7,9,11,13,15,17,19,21,23,25,27,29,-1,-1,-1,-1,-1,-1,-1,-1,-1,-1,-1,-1,-1,-1,-1,-1],"loss_changes":[3.917968E1,9.136279E0,9.044422E0,3.961998E0,7.1941643E0,5.98423E0,4.2292E0,2.3685532E0,3.0808258E0,5.310565E0,3.3585362E0,4.7338295E0,1.1109732E1,3.5226936E0,2.8577018E0,0E0,0E0,0E0,0E0,0E0,0E0,0E0,0E0,0E0,0E0,0E0,0E0,0E0,0E0,0E0,0E0],"parents":[2147483647,0,0,1,1,2,2,3,3,4,4,5,5,6,6,7,7,8,8,9,9,10,10,11,11,12,12,13,13,14,14],"right_children":[2,4,6,8,10,12,14,16,18,20,22,24,26,28,30,-1,-1,-1,-1,-1,-1,-1,-1,-1,-1,-1,-1,-1,-1,-1,-1],"split_conditions":[6E0,4.55E2,4.18E2,9E0,3.2E1,3.85E2,1.1E1,2.9E1,2.8E1,4.76E2,4.92E2,3.32E2,1E0,4.74E2,4.49E2,-1.586486E-1,6.880808E-3,-2.2740556E-2,-5.088809E-2,1.7339544E-1,3.4138918E-2,9.2154015E-3,-1.07718885E-1,4.8688166E-2,1.5943721E-3,2.0463923E-1,-2.3890687E-2,-4.9825978E-2,3.822167E-2,-1.3322092E-2,1.1188276E-1],"split_indices":[3,0,0,0,1,0,3,1,1,0,0,0,5,0,0,0,0,0,0,0,0,0,0,0,0,0,0,0,0,0,0],"split_type":[0,0,0,0,0,0,0,0,0,0,0,0,0,0,0,0,0,0,0,0,0,0,0,0,0,0,0,0,0,0,0],"sum_hessian":[3.89E2,2.04E2,1.85E2,1.81E2,2.3E1,1.54E2,3.1E1,4E0,1.77E2,1.4E1,9E0,1.46E2,8E0,2.5E1,6E0,3E0,1E0,1.17E2,6E1,3E0,1.1E1,6E0,3E0,1.2E2,2.6E1,5E0,3E0,2E1,5E0,3E0,3E0],"tree_param":{"num_deleted":"0","num_feature":"7","num_nodes":"31","size_leaf_vector":"1"}},{"base_weights":[3.9018627E-2,-2.4040313E-1,2.7360576E-1,-1.4674994E-1,-2.119568E-1,1.5538548E-1,7.8306496E-1,-1.1663352E-1,-5.1516557E-1,6.6130936E-2,4.7409075E-1,1.7178394E0,5.043973E-1,-3.5998948E-2,8.39906E-3,5.0041538E-2,-7.265401E-2,6.210014E-2,2.3594305E-3,2.280624E-2,1.0796119E-1,9.269943E-2,2.474647E-1,1.00110054E-1,-2.1976416E-3],"categories":[],"categories_nodes":[],"categories_segments":[],"categories_sizes":[],"default_left":[0,0,0,0,0,0,0,0,0,0,0,0,0,0,0,0,0,0,0,0,0,0,0,0,0],"id":35,"left_children":[1,3,5,-1,7,9,11,13,15,17,19,21,23,-1,-1,-1,-1,-1,-1,-1,-1,-1,-1,-1,-1],"loss_changes":[2.6416374E1,6.1117315E0,1.3068344E1,0E0,5.1713305E0,5.060464E0,9.813677E0,6.8166413E0,9.594292E0,3.3132746E0,5.56382E0,3.0926743E0,8.649901E0,0E0,0E0,0E0,0E0,0E0,0E0,0E0,0E0,0E0,0E0,0E0,0E0],"parents":[2147483647,0,0,1,1,2,2,4,4,5,5,6,6,7,7,8,8,9,9,10,10,11,11,12,12],"right_children":[2,4,6,-1,8,10,12,14,16,18,20,22,24,-1,-1,-1,-1,-1,-1,-1,-1,-1,-1,-1,-1],"split_conditions":[5E0,9E0,1.1E1,-1.4674994E-1,1.2E1,1.2E1,3E0,2.33E2,6.4E1,3.5E1,3.71E2,2.29E2,2.45E2,-3.5998948E-2,8.39906E-3,5.0041538E-2,-7.265401E-2,6.210014E-2,2.3594305E-3,2.280624E-2,1.0796119E-1,9.269943E-2,2.474647E-1,1.00110054E-1,-2.1976416E-3],"split_indices":[3,0,3,0,2,2,2,0,0,0,6,6,6,0,0,0,0,0,0,0,0,0,0,0,0],"split_type":[0,0,0,0,0,0,0,0,0,0,0,0,0,0,0,0,0,0,0,0,0,0,0,0,0],"sum_hessian":[4.01E2,1.83E2,2.18E2,3E0,1.8E2,1.78E2,4E1,1.38E2,4.2E1,1.4E2,3.8E1,8E0,3.2E1,6.2E1,7.6E1,7E0,3.5E1,9E0,1.31E2,2.8E1,1E1,5E0,3E0,1.6E1,1.6E1],"tree_param":{"num_deleted":"0","num_feature":"7","num_nodes":"25","size_leaf_vector":"1"}},{"base_weights":[-3.7683505E-3,-1.6270214E-1,3.4210175E-1,-3.248591E-1,9.212706E-3,1.9860765E-1,6.6540116E-1,-2.2793499E-1,-1.2541997E0,2.0808113E-1,-6.8050486E-1,1.0704677E0,1.3318875E-1,1.4146969E0,3.8407847E-1,3.533181E-2,-3.201388E-2,-1.5238442E-1,1.5256278E-2,-7.6612815E-2,3.198707E-2,-9.029038E-2,4.395506E-3,1.231578E-1,1.3245821E-2,-4.8735734E-2,3.004106E-2,-7.1404264E-3,2.4173318E-1,-1.1338182E-2,1.3405912E-1],"categories":[],"categories_nodes":[],"categories_segments":[],"categories_sizes":[],"default_left":[0,0,0,0,0,0,0,0,0,0,0,0,0,0,0,0,0,0,0,0,0,0,0,0,0,0,0,0,0,0,0],"id":36,"left_children":[1,3,5,7,9,11,13,15,17,19,21,23,25,27,29,-1,-1,-1,-1,-1,-1,-1,-1,-1,-1,-1,-1,-1,-1,-1,-1],"loss_changes":[2.182396E1,7.5855885E0,5.666794E0,1.23246975E1,1.8384285E1,4.876604E0,7.466812E0,6.9731092E0,5.1637154E0,1.1571333E1,4.8732605E0,7.436056E-1,8.759222E0,1.5072775E1,1.3950986E1,0E0,0E0,0E0,0E0,0E0,0E0,0E0,0E0,0E0,0E0,0E0,0E0,0E0,0E0,0E0,0E0],"parents":[2147483647,0,0,1,1,2,2,3,3,4,4,5,5,6,6,7,7,8,8,9,9,10,10,11,11,12,12,13,13,14,14],"right_children":[2,4,6,8,10,12,14,16,18,20,22,24,26,28,30,-1,-1,-1,-1,-1,-1,-1,-1,-1,-1,-1,-1,-1,-1,-1,-1],"split_conditions":[8E0,2.4E1,1.1E1,2.2E1,1.1E1,7E0,3E0,1E0,5E0,4.8E1,5E0,2.64E2,1.5E1,1.9E1,3.52E2,3.533181E-2,-3.201388E-2,-1.5238442E-1,1.5256278E-2,-7.6612815E-2,3.198707E-2,-9.029038E-2,4.395506E-3,1.231578E-1,1.3245821E-2,-4.8735734E-2,3.004106E-2,-7.1404264E-3,2.4173318E-1,-1.1338182E-2,1.3405912E-1],"split_indices":[3,1,3,1,2,1,2,4,3,0,3,0,1,1,0,0,0,0,0,0,0,0,0,0,0,0,0,0,0,0,0],"split_type":[0,0,0,0,0,0,0,0,0,0,0,0,0,0,0,0,0,0,0,0,0,0,0,0,0,0,0,0,0,0,0],"sum_hessian":[3.95E2,2.71E2,1.24E2,1.39E2,1.32E2,8.7E1,3.7E1,1.27E2,1.2E1,1.03E2,2.9E1,5E0,8.2E1,9E0,2.8E1,1.7E1,1.1E2,1E1,2E0,1E1,9.3E1,2.2E1,7E0,4E0,1E0,1.7E1,6.5E1,4E0,5E0,1.9E1,9E0],"tree_param":{"num_deleted":"0","num_feature":"7","num_nodes":"31","size_leaf_vector":"1"}},{"base_weights":[3.7226476E-2,-1.7709091E-1,2.1662201E-1,1.7804618E-1,-2.6647428E-1,3.685778E-1,4.0666625E-2,-3.525902E-1,1.3571409E0,-1.3570051E0,-2.1122818E-1,1.3104081E-2,5.4170746E-1,-1.8459357E-1,2.972769E-1,2.3448681E-2,-8.3788425E-2,2.4010034E-2,1.70281E-1,-1.5370093E-1,-6.046632E-2,-7.5916755E-3,-4.4656325E-2,2.5531014E-2,-5.7331927E-2,1.0946385E-1,4.376947E-2,-1.1623547E-1,-4.401515E-3,8.449003E-2,9.68342E-3],"categories":[],"categories_nodes":[],"categories_segments":[],"categories_sizes":[],"default_left":[0,0,0,0,0,0,0,0,0,0,0,0,0,0,0,0,0,0,0,0,0,0,0,0,0,0,0,0,0,0,0],"id":37,"left_children":[1,3,5,7,9,11,13,15,17,19,21,23,25,27,29,-1,-1,-1,-1,-1,-1,-1,-1,-1,-1,-1,-1,-1,-1,-1,-1],"loss_changes":[1.5686528E1,5.9517074E0,5.920723E0,2.4253996E1,8.6902485E0,7.3165226E0,6.0665007E0,7.8889074E0,4.2246704E0,1.8598557E-2,4.519723E0,5.8277855E0,4.121832E0,7.6461587E0,5.2967744E0,0E0,0E0,0E0,0E0,0E0,0E0,0E0,0E0,0E0,0E0,0E0,0E0,0E0,0E0,0E0,0E0],"parents":[2147483647,0,0,1,1,2,2,3,3,4,4,5,5,6,6,7,7,8,8,9,9,10,10,11,11,12,12,13,13,14,14],"right_children":[2,4,6,8,10,12,14,16,18,20,22,24,26,28,30,-1,-1,-1,-1,-1,-1,-1,-1,-1,-1,-1,-1,-1,-1,-1,-1],"split_conditions":[5E0,2.13E2,8E0,1.62E2,2.29E2,2.27E2,1.2E1,9E0,1E0,5E0,4.06E2,1.96E2,2.63E2,1.44E2,1.92E2,2.3448681E-2,-8.3788425E-2,2.4010034E-2,1.70281E-1,-1.5370093E-1,-6.046632E-2,-7.5916755E-3,-4.4656325E-2,2.5531014E-2,-5.7331927E-2,1.0946385E-1,4.376947E-2,-1.1623547E-1,-4.401515E-3,8.449003E-2,9.68342E-3],"split_indices":[3,6,2,6,6,6,2,2,5,4,6,6,6,6,6,0,0,0,0,0,0,0,0,0,0,0,0,0,0,0,0],"split_type":[0,0,0,0,0,0,0,0,0,0,0,0,0,0,0,0,0,0,0,0,0,0,0,0,0,0,0,0,0,0,0],"sum_hessian":[4.06E2,1.85E2,2.21E2,3.7E1,1.48E2,1.18E2,1.03E2,2.6E1,1.1E1,6E0,1.42E2,3.9E1,7.9E1,5.5E1,4.8E1,1.2E1,1.4E1,3E0,8E0,4E0,2E0,9.1E1,5.1E1,2.8E1,1.1E1,1.1E1,6.8E1,6E0,4.9E1,1.2E1,3.6E1],"tree_param":{"num_deleted":"0","num_feature":"7","num_nodes":"31","size_leaf_vector":"1"}},{"base_weights":[5.368057E-2,-4.4590846E-1,9.969238E-2,-1.584436E-1,-1.5320667E0,-1.663193E-1,1.6054276E-1,-8.7654793E-1,2.8920037E-1,-2.2336447E-1,1.4791882E-1,-2.5152916E-1,1.2812233E-1,-1.1346817E-1,2.5238404E-1,1.8166447E-3,-1.3904086E-1,7.904445E-3,1.313632E-1,-2.4033684E-2,4.6221506E-2,1.08994044E-1,-3.556553E-2,-3.9875474E-2,1.3979484E-2,1.0626545E-1,1.6376477E-2],"categories":[],"categories_nodes":[],"categories_segments":[],"categories_sizes":[],"default_left":[0,0,0,0,0,0,0,0,0,0,0,0,0,0,0,0,0,0,0,0,0,0,0,0,0,0,0],"id":38,"left_children":[1,3,5,7,9,11,13,15,17,-1,19,21,-1,23,25,-1,-1,-1,-1,-1,-1,-1,-1,-1,-1,-1,-1],"loss_changes":[9.2622385E0,1.0373154E1,5.9834843E0,9.25424E0,8.580883E0,8.833064E0,7.578292E0,5.0826015E0,3.7713912E0,0E0,4.771692E-1,9.606655E0,0E0,5.546936E0,1.598223E1,0E0,0E0,0E0,0E0,0E0,0E0,0E0,0E0,0E0,0E0,0E0,0E0],"parents":[2147483647,0,0,1,1,2,2,3,3,4,4,5,5,6,6,7,7,8,8,10,10,11,11,13,13,14,14],"right_children":[2,4,6,8,10,12,14,16,18,-1,20,22,-1,24,26,-1,-1,-1,-1,-1,-1,-1,-1,-1,-1,-1,-1],"split_conditions":[1E0,3.96E2,1.85E2,1.3E1,4E0,3.8E1,1.28E2,1.63E2,4.53E2,-2.2336447E-1,3.63E2,5E1,1.2812233E-1,4E0,1.67E2,1.8166447E-3,-1.3904086E-1,7.904445E-3,1.313632E-1,-2.4033684E-2,4.6221506E-2,1.08994044E-1,-3.556553E-2,-3.9875474E-2,1.3979484E-2,1.0626545E-1,1.6376477E-2],"split_indices":[2,6,6,1,4,1,0,0,0,0,0,0,0,4,0,0,0,0,0,0,0,0,0,0,0,0,0],"split_type":[0,0,0,0,0,0,0,0,0,0,0,0,0,0,0,0,0,0,0,0,0,0,0,0,0,0,0],"sum_hessian":[4E2,3.3E1,3.67E2,2.7E1,6E0,6.8E1,2.99E2,1E1,1.7E1,4E0,2E0,6.5E1,3E0,7.5E1,2.24E2,4E0,6E0,1.5E1,2E0,1E0,1E0,4E0,6.1E1,3.5E1,4E1,2.1E1,2.03E2],"tree_param":{"num_deleted":"0","num_feature":"7","num_nodes":"27","size_leaf_vector":"1"}},{"base_weights":[1.6223837E-2,9.2383645E-2,-2.6725137E-1,6.7709233E-3,6.7613274E-1,1.078332E-1,-3.3199924E-1,5.6232683E-2,-9.6396136E-1,1.7801557E0,3.7899783E-1,-8.80927E-1,-1.6727829E-1,-4.8111337E-3,3.4388628E-2,-4.136988E-2,-1.2561631E-1,2.1457803E-1,4.5552127E-2,8.587808E-3,1.0152735E-1,-6.296658E-2,-1.9273448E-1,9.928154E-2,-2.8645871E-2],"categories":[],"categories_nodes":[],"categories_segments":[],"categories_sizes":[],"default_left":[0,0,0,0,0,0,0,0,0,0,0,0,0,0,0,0,0,0,0,0,0,0,0,0,0],"id":39,"left_children":[1,3,5,7,9,-1,11,13,15,17,19,21,23,-1,-1,-1,-1,-1,-1,-1,-1,-1,-1,-1,-1],"loss_changes":[8.358206E0,1.5238208E1,7.5021462E0,1.2873979E1,1.2119032E1,0E0,6.9958124E0,7.670351E0,1.5705671E0,2.8971024E0,5.880969E0,3.5190535E0,8.856548E0,0E0,0E0,0E0,0E0,0E0,0E0,0E0,0E0,0E0,0E0,0E0,0E0],"parents":[2147483647,0,0,1,1,2,2,3,3,4,4,6,6,7,7,8,8,9,9,10,10,11,11,12,12],"right_children":[2,4,6,8,10,-1,12,14,16,18,20,22,24,-1,-1,-1,-1,-1,-1,-1,-1,-1,-1,-1,-1],"split_conditions":[4.12E2,3.71E2,2.3E1,3.62E2,3.78E2,1.078332E-1,1.1E2,3.1E1,1E0,3.3E1,1.1E1,1.03E2,1.67E2,-4.8111337E-3,3.4388628E-2,-4.136988E-2,-1.2561631E-1,2.1457803E-1,4.5552127E-2,8.587808E-3,1.0152735E-1,-6.296658E-2,-1.9273448E-1,9.928154E-2,-2.8645871E-2],"split_indices":[6,6,0,6,6,0,0,1,5,1,2,0,0,0,0,0,0,0,0,0,0,0,0,0,0],"split_type":[0,0,0,0,0,0,0,0,0,0,0,0,0,0,0,0,0,0,0,0,0,0,0,0,0],"sum_hessian":[3.85E2,3.04E2,8.1E1,2.66E2,3.8E1,3E0,7.8E1,2.54E2,1.2E1,7E0,3.1E1,1.7E1,6.1E1,1.87E2,6.7E1,5E0,7E0,5E0,2E0,2.2E1,9E0,1.5E1,2E0,5E0,5.6E1],"tree_param":{"num_deleted":"0","num_feature":"7","num_nodes":"25","size_leaf_vector":"1"}},{"base_weights":[-4.5466754E-3,-1.1407876E-1,1.1877241E-1,-7.440681E-2,-5.7176346E-1,-4.2860162E-1,2.194048E-1,3.209717E-1,-1.228558E-1,-1.7253113E-1,-3.9183474E-1,1.269226E-1,-5.3091383E-1,-6.8675435E-1,3.1654182E-1,-1.0140471E-2,1.2405504E-1,-5.0374925E-2,-6.308614E-3,-3.313188E-3,-1.1743547E-1,-1.172215E-1,-1.3169135E-2,4.2102934E-4,-1.22463904E-1,4.829457E-2,2.101396E-3],"categories":[],"categories_nodes":[],"categories_segments":[],"categories_sizes":[],"default_left":[0,0,0,0,0,0,0,0,0,0,0,0,0,0,0,0,0,0,0,0,0,0,0,0,0,0,0],"id":40,"left_children":[1,3,5,7,9,11,13,15,17,-1,19,-1,21,23,25,-1,-1,-1,-1,-1,-1,-1,-1,-1,-1,-1,-1],"loss_changes":[5.4840446E0,3.8612645E0,1.0614997E1,3.8514154E0,2.8524208E0,5.885104E0,1.4476885E1,8.670782E0,4.020546E0,0E0,4.4521656E0,0E0,7.2702637E0,5.9517055E0,7.2188654E0,0E0,0E0,0E0,0E0,0E0,0E0,0E0,0E0,0E0,0E0,0E0,0E0],"parents":[2147483647,0,0,1,1,2,2,3,3,4,4,5,5,6,6,7,7,8,8,10,10,12,12,13,13,14,14],"right_children":[2,4,6,8,10,12,14,16,18,-1,20,-1,22,24,26,-1,-1,-1,-1,-1,-1,-1,-1,-1,-1,-1,-1],"split_conditions":[2.4E1,2.2E1,1E0,1E0,1E0,2E0,3.7E1,3.59E2,2E0,-1.7253113E-1,6E0,1.269226E-1,3.2E1,9E0,5E0,-1.0140471E-2,1.2405504E-1,-5.0374925E-2,-6.308614E-3,-3.313188E-3,-1.1743547E-1,-1.172215E-1,-1.3169135E-2,4.2102934E-4,-1.22463904E-1,4.829457E-2,2.101396E-3],"split_indices":[1,1,4,4,2,2,0,0,4,0,4,0,1,2,4,0,0,0,0,0,0,0,0,0,0,0,0],"split_type":[0,0,0,0,0,0,0,0,0,0,0,0,0,0,0,0,0,0,0,0,0,0,0,0,0,0,0],"sum_hessian":[4.04E2,2.14E2,1.9E2,1.98E2,1.6E1,2.9E1,1.61E2,2.1E1,1.77E2,1E0,1.5E1,1E0,2.8E1,1.5E1,1.46E2,1.5E1,6E0,2.3E1,1.54E2,1.1E1,4E0,1E1,1.8E1,7E0,8E0,9.3E1,5.3E1],"tree_param":{"num_deleted":"0","num_feature":"7","num_nodes":"27","size_leaf_vector":"1"}},{"base_weights":[-2.3733987E-2,-2.0509529E-1,2.889932E-1,-7.6645446E-1,-1.3430363E-1,5.8703786E-1,1.02818124E-1,-1.6041078E-1,-1.2405953E0,4.317551E-1,-1.9080298E-1,-4.418835E-1,7.24859E-1,1.3661765E0,1.02522345E-2,-9.5014736E-2,6.522416E-2,-6.078155E-2,-1.8769418E-1,-2.3571119E-2,1.4624184E-1,-1.1539885E-1,-1.1124544E-2,1.25070885E-2,-6.9367945E-2,1.6361932E-1,5.808389E-2,1.7435312E-2,1.5696706E-1,-7.807263E-2,1.1700269E-2],"categories":[],"categories_nodes":[],"categories_segments":[],"categories_sizes":[],"default_left":[0,0,0,0,0,0,0,0,0,0,0,0,0,0,0,0,0,0,0,0,0,0,0,0,0,0,0,0,0,0,0],"id":41,"left_children":[1,3,5,7,9,11,13,15,17,19,21,23,25,27,29,-1,-1,-1,-1,-1,-1,-1,-1,-1,-1,-1,-1,-1,-1,-1,-1],"loss_changes":[2.1781734E1,9.553776E0,7.7635202E0,7.5594463E0,7.022463E0,7.9778824E0,1.0277057E1,8.962883E0,4.8991737E0,1.4103368E1,1.5044098E1,1.0860568E0,5.349659E0,1.1814957E0,7.099644E0,0E0,0E0,0E0,0E0,0E0,0E0,0E0,0E0,0E0,0E0,0E0,0E0,0E0,0E0,0E0,0E0],"parents":[2147483647,0,0,1,1,2,2,3,3,4,4,5,5,6,6,7,7,8,8,9,9,10,10,11,11,12,12,13,13,14,14],"right_children":[2,4,6,8,10,12,14,16,18,20,22,24,26,28,30,-1,-1,-1,-1,-1,-1,-1,-1,-1,-1,-1,-1,-1,-1,-1,-1],"split_conditions":[7E0,1.62E2,3E0,9E0,1.96E2,1.15E2,1.29E2,4E0,1.28E2,9E0,2.35E2,9E0,1.37E2,4E0,1.71E2,-9.5014736E-2,6.522416E-2,-6.078155E-2,-1.8769418E-1,-2.3571119E-2,1.4624184E-1,-1.1539885E-1,-1.1124544E-2,1.25070885E-2,-6.9367945E-2,1.6361932E-1,5.808389E-2,1.7435312E-2,1.5696706E-1,-7.807263E-2,1.1700269E-2],"split_indices":[3,6,4,2,6,6,6,2,6,2,6,3,6,4,6,0,0,0,0,0,0,0,0,0,0,0,0,0,0,0,0],"split_type":[0,0,0,0,0,0,0,0,0,0,0,0,0,0,0,0,0,0,0,0,0,0,0,0,0,0,0,0,0,0,0],"sum_hessian":[3.82E2,2.42E2,1.4E2,2.6E1,2.16E2,5.3E1,8.7E1,1.2E1,1.4E1,1.9E1,1.97E2,6E0,4.7E1,5E0,8.2E1,6E0,6E0,8E0,6E0,1.2E1,7E0,1.4E1,1.83E2,2E0,4E0,5E0,4.2E1,1E0,4E0,9E0,7.3E1],"tree_param":{"num_deleted":"0","num_feature":"7","num_nodes":"31","size_leaf_vector":"1"}},{"base_weights":[-4.4125896E-2,-1.6376671E-1,2.2638664E-1,-2.3155312E-1,1.3790353E-1,4.31488E-1,4.5457292E-2,-3.8975474E-1,-5.0699864E-2,-7.223156E-2,1.760978E-1,-2.7439567E-1,7.069293E-1,2.1241994E-1,-3.3038566E-1,-1.3583106E-1,-3.36754E-2,1.66246E-3,-1.02447055E-1,1.2190274E-2,-1.1989851E-1,-8.111089E-2,1.8241448E-2,1.3209708E-1,4.464317E-2,3.2137935E-3,7.995122E-2,-6.1198343E-2,2.0370865E-2],"categories":[],"categories_nodes":[],"categories_segments":[],"categories_sizes":[],"default_left":[0,0,0,0,0,0,0,0,0,0,0,0,0,0,0,0,0,0,0,0,0,0,0,0,0,0,0,0,0],"id":42,"left_children":[1,3,5,7,9,11,13,15,17,19,-1,21,23,25,27,-1,-1,-1,-1,-1,-1,-1,-1,-1,-1,-1,-1,-1,-1],"loss_changes":[1.3079904E1,5.7576914E0,4.5818853E0,6.5322227E0,1.7862572E1,1.1470892E1,4.274547E0,5.805357E0,7.0973597E0,1.0427011E1,0E0,4.315951E0,6.128441E0,4.948887E0,3.2830615E0,0E0,0E0,0E0,0E0,0E0,0E0,0E0,0E0,0E0,0E0,0E0,0E0,0E0,0E0],"parents":[2147483647,0,0,1,1,2,2,3,3,4,4,5,5,6,6,7,7,8,8,9,9,11,11,12,12,13,13,14,14],"right_children":[2,4,6,8,10,12,14,16,18,20,-1,22,24,26,28,-1,-1,-1,-1,-1,-1,-1,-1,-1,-1,-1,-1,-1,-1],"split_conditions":[8E0,4.02E2,4E0,4E0,7E0,1.51E2,3.81E2,1.1E1,3.83E2,6E0,1.760978E-1,1E0,2.31E2,3.21E2,4.57E2,-1.3583106E-1,-3.36754E-2,1.66246E-3,-1.02447055E-1,1.2190274E-2,-1.1989851E-1,-8.111089E-2,1.8241448E-2,1.3209708E-1,4.464317E-2,3.2137935E-3,7.995122E-2,-6.1198343E-2,2.0370865E-2],"split_indices":[3,0,4,4,4,0,0,0,0,4,0,5,0,0,0,0,0,0,0,0,0,0,0,0,0,0,0,0,0],"split_type":[0,0,0,0,0,0,0,0,0,0,0,0,0,0,0,0,0,0,0,0,0,0,0,0,0,0,0,0,0],"sum_hessian":[4.02E2,2.79E2,1.23E2,2.28E2,5.1E1,5.7E1,6.6E1,1.21E2,1.07E2,4.6E1,5E0,1.6E1,4.1E1,4.6E1,2E1,5E0,1.16E2,1.01E2,6E0,4E1,6E0,7E0,9E0,1.1E1,3E1,3.6E1,1E1,1.3E1,7E0],"tree_param":{"num_deleted":"0","num_feature":"7","num_nodes":"29","size_leaf_vector":"1"}},{"base_weights":[6.294565E-3,-1.6403055E-1,2.1581651E-1,-4.3760064E-1,-6.735862E-2,7.048573E-1,1.6977121E-1,-5.636271E-1,5.4310673E-1,4.1515436E-2,-5.718634E-1,-5.3483963E-2,1.8512832E0,-1.3688923E-1,2.9784527E-1,-3.336517E-2,-1.5997735E-1,8.034354E-2,-7.1809925E-3,-6.0547214E-2,1.5929999E-2,-1.18501596E-1,-1.8678227E-2,-4.8108313E-2,7.081856E-2,2.0783405E-1,3.579984E-2,5.4036874E-2,-3.4715783E-2,6.140053E-2,9.610854E-3],"categories":[],"categories_nodes":[],"categories_segments":[],"categories_sizes":[],"default_left":[0,0,0,0,0,0,0,0,0,0,0,0,0,0,0,0,0,0,0,0,0,0,0,0,0,0,0,0,0,0,0],"id":43,"left_children":[1,3,5,7,9,11,13,15,17,19,21,23,25,27,29,-1,-1,-1,-1,-1,-1,-1,-1,-1,-1,-1,-1,-1,-1,-1,-1],"loss_changes":[1.4167394E1,5.7623186E0,3.888544E0,7.3510303E0,8.97692E0,1.3139745E1,6.4819126E0,1.1618931E1,1.1782575E0,1.0384146E1,6.625952E0,3.5975885E0,1.2903252E0,7.1654916E0,7.339594E0,0E0,0E0,0E0,0E0,0E0,0E0,0E0,0E0,0E0,0E0,0E0,0E0,0E0,0E0,0E0,0E0],"parents":[2147483647,0,0,1,1,2,2,3,3,4,4,5,5,6,6,7,7,8,8,9,9,10,10,11,11,12,12,13,13,14,14],"right_children":[2,4,6,8,10,12,14,16,18,20,22,24,26,28,30,-1,-1,-1,-1,-1,-1,-1,-1,-1,-1,-1,-1,-1,-1,-1,-1],"split_conditions":[6E0,3E0,1.33E2,4.62E2,4.57E2,1.15E2,2.17E2,4.05E2,4.87E2,1.5E2,4.73E2,3E0,1E0,2E0,6E0,-3.336517E-2,-1.5997735E-1,8.034354E-2,-7.1809925E-3,-6.0547214E-2,1.5929999E-2,-1.18501596E-1,-1.8678227E-2,-4.8108313E-2,7.081856E-2,2.0783405E-1,3.579984E-2,5.4036874E-2,-3.4715783E-2,6.140053E-2,9.610854E-3],"split_indices":[3,2,6,6,6,6,6,6,6,6,6,4,5,4,2,0,0,0,0,0,0,0,0,0,0,0,0,0,0,0,0],"split_type":[0,0,0,0,0,0,0,0,0,0,0,0,0,0,0,0,0,0,0,0,0,0,0,0,0,0,0,0,0,0,0],"sum_hessian":[3.95E2,2.18E2,1.77E2,5.6E1,1.62E2,1.4E1,1.63E2,5E1,6E0,1.34E2,2.8E1,9E0,5E0,4.8E1,1.15E2,4.2E1,8E0,4E0,2E0,2E1,1.14E2,1E1,1.8E1,6E0,3E0,4E0,1E0,1.1E1,3.7E1,4.4E1,7.1E1],"tree_param":{"num_deleted":"0","num_feature":"7","num_nodes":"31","size_leaf_vector":"1"}},{"base_weights":[2.7866527E-2,-4.8082575E-2,3.9715016E-1,-2.7257654E-1,2.1045819E-2,8.912562E-2,7.408926E-1,-1.6980414E-1,-6.6020685E-1,1.5000984E-1,-2.1562207E-1,3.1975135E-1,-1.4508294E0,1.1765909E0,9.666685E-2,-4.1351642E-2,2.1717917E-2,-2.4219483E-2,-1.8536942E-1,3.6668234E-2,-7.921449E-3,-8.49154E-2,6.9370265E-3,8.218952E-3,1.3750814E-1,-1.6408269E-1,-3.454199E-2,1.6238068E-1,1.7796291E-2,-7.8629546E-2,4.0895615E-2],"categories":[],"categories_nodes":[],"categories_segments":[],"categories_sizes":[],"default_left":[0,0,0,0,0,0,0,0,0,0,0,0,0,0,0,0,0,0,0,0,0,0,0,0,0,0,0,0,0,0,0],"id":44,"left_children":[1,3,5,7,9,11,13,15,17,19,21,23,25,27,29,-1,-1,-1,-1,-1,-1,-1,-1,-1,-1,-1,-1,-1,-1,-1,-1],"loss_changes":[1.1181707E1,5.142495E0,7.1338825E0,2.995235E0,7.784842E0,1.3604576E1,8.86828E0,6.0315E0,7.533318E0,8.224035E0,1.6308561E1,8.160285E0,4.833498E-1,8.196465E0,4.1819158E0,0E0,0E0,0E0,0E0,0E0,0E0,0E0,0E0,0E0,0E0,0E0,0E0,0E0,0E0,0E0,0E0],"parents":[2147483647,0,0,1,1,2,2,3,3,4,4,5,5,6,6,7,7,8,8,9,9,10,10,11,11,12,12,13,13,14,14],"right_children":[2,4,6,8,10,12,14,16,18,20,22,24,26,28,30,-1,-1,-1,-1,-1,-1,-1,-1,-1,-1,-1,-1,-1,-1,-1,-1],"split_conditions":[1E1,2E0,2.56E2,6E0,3.13E2,2.31E2,2.84E2,3.26E2,3.63E2,2.95E2,2.41E2,2.02E2,2.75E2,3.87E2,3.04E2,-4.1351642E-2,2.1717917E-2,-2.4219483E-2,-1.8536942E-1,3.6668234E-2,-7.921449E-3,-8.49154E-2,6.9370265E-3,8.218952E-3,1.3750814E-1,-1.6408269E-1,-3.454199E-2,1.6238068E-1,1.7796291E-2,-7.8629546E-2,4.0895615E-2],"split_indices":[3,3,0,4,0,0,6,0,0,6,6,0,6,0,6,0,0,0,0,0,0,0,0,0,0,0,0,0,0,0,0],"split_type":[0,0,0,0,0,0,0,0,0,0,0,0,0,0,0,0,0,0,0,0,0,0,0,0,0,0,0,0,0,0,0],"sum_hessian":[3.97E2,3.3E2,6.7E1,7.7E1,2.53E2,3.6E1,3.1E1,6.2E1,1.5E1,1.64E2,8.9E1,3.2E1,4E0,1.8E1,1.3E1,3.8E1,2.4E1,1.2E1,3E0,8.4E1,8E1,2.7E1,6.2E1,2.7E1,5E0,3E0,1E0,1.2E1,6E0,3E0,1E1],"tree_param":{"num_deleted":"0","num_feature":"7","num_nodes":"31","size_leaf_vector":"1"}},{"base_weights":[6.5391124E-3,-2.2000644E-1,9.0508245E-2,3.2790518E-1,-4.044152E-1,7.23849E-1,1.8467752E-2,5.481516E-1,-5.710236E-1,-6.9335246E-1,-1.1272846E-1,4.2632735E-1,1.6405163E0,-7.563871E-1,8.138901E-2,2.2665018E-2,1.4212972E-1,4.194997E-2,-1.1711601E-1,-9.9910654E-2,-1.5316757E-2,1.9548608E-2,-1.2645692E-1,6.697657E-2,-6.326916E-2,2.0704543E-2,1.8449205E-1,-1.2685166E-1,-1.1740587E-2,9.936008E-3,-1.4073879E-1],"categories":[],"categories_nodes":[],"categories_segments":[],"categories_sizes":[],"default_left":[0,0,0,0,0,0,0,0,0,0,0,0,0,0,0,0,0,0,0,0,0,0,0,0,0,0,0,0,0,0,0],"id":45,"left_children":[1,3,5,7,9,11,13,15,17,19,21,23,25,27,29,-1,-1,-1,-1,-1,-1,-1,-1,-1,-1,-1,-1,-1,-1,-1,-1],"loss_changes":[7.6670914E0,1.1145938E1,1.340073E1,5.8566103E0,6.8327312E0,7.4824524E0,1.2981594E1,6.1343665E0,4.057996E0,6.618681E0,1.5157795E1,6.611095E0,1.6690712E0,6.395893E0,6.721547E0,0E0,0E0,0E0,0E0,0E0,0E0,0E0,0E0,0E0,0E0,0E0,0E0,0E0,0E0,0E0,0E0],"parents":[2147483647,0,0,1,1,2,2,3,3,4,4,5,5,6,6,7,7,8,8,9,9,10,10,11,11,12,12,13,13,14,14],"right_children":[2,4,6,8,10,12,14,16,18,20,22,24,26,28,30,-1,-1,-1,-1,-1,-1,-1,-1,-1,-1,-1,-1,-1,-1,-1,-1],"split_conditions":[1.3E2,1.96E2,1.65E2,6E0,4E0,1E1,1E0,3E0,1.28E2,8.3E1,1.05E2,9E0,1E0,5E0,4.96E2,2.2665018E-2,1.4212972E-1,4.194997E-2,-1.1711601E-1,-9.9910654E-2,-1.5316757E-2,1.9548608E-2,-1.2645692E-1,6.697657E-2,-6.326916E-2,2.0704543E-2,1.8449205E-1,-1.2685166E-1,-1.1740587E-2,9.936008E-3,-1.4073879E-1],"split_indices":[0,6,0,4,4,2,2,4,6,0,0,3,4,4,0,0,0,0,0,0,0,0,0,0,0,0,0,0,0,0,0],"split_type":[0,0,0,0,0,0,0,0,0,0,0,0,0,0,0,0,0,0,0,0,0,0,0,0,0,0,0,0,0,0,0],"sum_hessian":[4.01E2,1.08E2,2.93E2,2.7E1,8.1E1,2.9E1,2.64E2,2.2E1,5E0,4E1,4.1E1,2.3E1,6E0,1.9E1,2.45E2,1.7E1,5E0,2E0,3E0,2.5E1,1.5E1,3.3E1,8E0,1.9E1,4E0,1E0,5E0,1E1,9E0,2.43E2,2E0],"tree_param":{"num_deleted":"0","num_feature":"7","num_nodes":"31","size_leaf_vector":"1"}},{"base_weights":[-3.0631302E-2,1.5615071E-1,-8.441255E-2,-1.14582404E-1,8.646401E-1,-4.7314072E-1,-3.3587184E-2,-1.9290194E-1,1.147596E0,1.8628803E0,2.8529873E-1,-7.125779E-1,6.511506E-2,3.0783138E-1,-1.101456E-1,-3.1929426E-2,7.15957E-2,3.2607175E-2,1.3127469E-1,7.9970144E-2,2.0524028E-1,7.1135394E-2,-2.8293265E-2,-2.8279394E-2,-1.3289744E-1,7.351246E-2,-3.617803E-2,-8.110702E-5,9.251641E-2,-6.0180128E-2,-5.7103992E-3],"categories":[],"categories_nodes":[],"categories_segments":[],"categories_sizes":[],"default_left":[0,0,0,0,0,0,0,0,0,0,0,0,0,0,0,0,0,0,0,0,0,0,0,0,0,0,0,0,0,0,0],"id":46,"left_children":[1,3,5,7,9,11,13,15,17,19,21,23,25,27,29,-1,-1,-1,-1,-1,-1,-1,-1,-1,-1,-1,-1,-1,-1,-1,-1],"loss_changes":[4.0413747E0,1.736211E1,6.1483717E0,6.745687E0,1.3926569E1,4.6860228E0,7.274261E0,7.4655857E0,1.1465216E-1,1.7215729E-1,4.3169303E0,6.2471056E0,3.698241E0,9.718039E0,5.8853884E0,0E0,0E0,0E0,0E0,0E0,0E0,0E0,0E0,0E0,0E0,0E0,0E0,0E0,0E0,0E0,0E0],"parents":[2147483647,0,0,1,1,2,2,3,3,4,4,5,5,6,6,7,7,8,8,9,9,10,10,11,11,12,12,13,13,14,14],"right_children":[2,4,6,8,10,12,14,16,18,20,22,24,26,28,30,-1,-1,-1,-1,-1,-1,-1,-1,-1,-1,-1,-1,-1,-1,-1,-1],"split_conditions":[1.98E2,1.76E2,2.35E2,3.8E1,6E0,3.2E1,2.84E2,1.3E1,6E0,1.2E1,5E0,2.1E1,3E0,2.3E1,3.04E2,-3.1929426E-2,7.15957E-2,3.2607175E-2,1.3127469E-1,7.9970144E-2,2.0524028E-1,7.1135394E-2,-2.8293265E-2,-2.8279394E-2,-1.3289744E-1,7.351246E-2,-3.617803E-2,-8.110702E-5,9.251641E-2,-6.0180128E-2,-5.7103992E-3],"split_indices":[6,6,6,1,3,1,6,2,2,1,4,1,2,1,6,0,0,0,0,0,0,0,0,0,0,0,0,0,0,0,0],"split_type":[0,0,0,0,0,0,0,0,0,0,0,0,0,0,0,0,0,0,0,0,0,0,0,0,0,0,0,0,0,0,0],"sum_hessian":[4E2,8.9E1,3.11E2,6.5E1,2.4E1,3.5E1,2.76E2,6.2E1,3E0,8E0,1.6E1,2.4E1,1.1E1,5E1,2.26E2,5.5E1,7E0,1E0,2E0,2E0,6E0,9E0,7E0,1.5E1,9E0,4E0,7E0,3.4E1,1.6E1,2.1E1,2.05E2],"tree_param":{"num_deleted":"0","num_feature":"7","num_nodes":"31","size_leaf_vector":"1"}},{"base_weights":[4.230922E-2,-5.4313432E-2,2.5381035E-1,-4.3047005E-1,7.071032E-3,1.9708708E-1,6.755496E-1,-1.1598536E-1,-1.249022E0,5.358258E-1,-4.7252316E-2,2.6518026E-1,-6.419295E-1,8.3243096E-1,-2.2945277E-1,4.551858E-2,-4.2433023E-2,-1.5129042E-1,-4.0900208E-2,2.3808857E-2,1.8905555E-1,-1.0878231E-1,1.6779153E-3,4.2249616E-2,-8.96396E-3,-5.289523E-3,-8.0266856E-2,3.4133222E-2,1.0967012E-1,4.266086E-2,-7.7078775E-2],"categories":[],"categories_nodes":[],"categories_segments":[],"categories_sizes":[],"default_left":[0,0,0,0,0,0,0,0,0,0,0,0,0,0,0,0,0,0,0,0,0,0,0,0,0,0,0,0,0,0,0],"id":47,"left_children":[1,3,5,7,9,11,13,15,17,19,21,23,25,27,29,-1,-1,-1,-1,-1,-1,-1,-1,-1,-1,-1,-1,-1,-1,-1,-1],"loss_changes":[8.474207E0,6.5837436E0,2.9767742E0,1.0152013E1,7.091356E0,6.797457E0,2.3206735E0,5.4766803E0,1.8195477E0,8.827009E0,1.4943211E1,6.066304E0,8.096702E-1,1.3128366E0,1.3942714E0,0E0,0E0,0E0,0E0,0E0,0E0,0E0,0E0,0E0,0E0,0E0,0E0,0E0,0E0,0E0,0E0],"parents":[2147483647,0,0,1,1,2,2,3,3,4,4,5,5,6,6,7,7,8,8,9,9,10,10,11,11,12,12,13,13,14,14],"right_children":[2,4,6,8,10,12,14,16,18,20,22,24,26,28,30,-1,-1,-1,-1,-1,-1,-1,-1,-1,-1,-1,-1,-1,-1,-1,-1],"split_conditions":[8E0,1.65E2,4.49E2,1.44E2,1.98E2,4.26E2,1E1,1.75E2,3.2E1,1.96E2,2.29E2,2.9E1,1.2E1,4.61E2,4.53E2,4.551858E-2,-4.2433023E-2,-1.5129042E-1,-4.0900208E-2,2.3808857E-2,1.8905555E-1,-1.0878231E-1,1.6779153E-3,4.2249616E-2,-8.96396E-3,-5.289523E-3,-8.0266856E-2,3.4133222E-2,1.0967012E-1,4.266086E-2,-7.7078775E-2],"split_indices":[3,6,0,6,6,0,2,0,1,6,6,1,1,0,0,0,0,0,0,0,0,0,0,0,0,0,0,0,0,0,0],"split_type":[0,0,0,0,0,0,0,0,0,0,0,0,0,0,0,0,0,0,0,0,0,0,0,0,0,0,0,0,0,0,0],"sum_hessian":[4.13E2,2.84E2,1.29E2,3.9E1,2.45E2,1.15E2,1.4E1,2.9E1,1E1,2.2E1,2.23E2,1.07E2,8E0,1.2E1,2E0,1E1,1.9E1,7E0,3E0,1.9E1,3E0,1.2E1,2.11E2,7.4E1,3.3E1,2E0,6E0,5E0,7E0,1E0,1E0],"tree_param":{"num_deleted":"0","num_feature":"7","num_nodes":"31","size_leaf_vector":"1"}},{"base_weights":[-2.4025986E-2,5.8901362E-2,-1.1097957E-1,1.5067507E-1,-1.7853092E-1,-4.8404983E-1,-3.4360602E-2,6.0879713E-1,1.35144945E-2,-6.323341E-1,5.0315377E-3,-1.5828024E-1,-1.068104E0,6.0343665E-1,-1.012711E-1,1.1263257E-1,3.567327E-2,-5.8241226E-2,6.806269E-3,-3.820684E-2,-1.3501805E-1,-3.1004623E-2,4.5986436E-2,6.967585E-3,-5.2062035E-2,-1.3552767E-1,2.4517266E-2,8.2742487E-4,9.597067E-2,-3.916666E-3,-6.658806E-2],"categories":[],"categories_nodes":[],"categories_segments":[],"categories_sizes":[],"default_left":[0,0,0,0,0,0,0,0,0,0,0,0,0,0,0,0,0,0,0,0,0,0,0,0,0,0,0,0,0,0,0],"id":48,"left_children":[1,3,5,7,9,11,13,15,17,19,21,23,25,27,29,-1,-1,-1,-1,-1,-1,-1,-1,-1,-1,-1,-1,-1,-1,-1,-1],"loss_changes":[2.9557664E0,4.6028085E0,5.70022E0,9.542889E0,4.9179544E0,6.3000226E0,7.187891E0,4.163973E0,3.8754344E0,2.5382285E0,6.3048105E0,1.9360204E0,4.8579206E0,3.384676E0,5.3037624E0,0E0,0E0,0E0,0E0,0E0,0E0,0E0,0E0,0E0,0E0,0E0,0E0,0E0,0E0,0E0,0E0],"parents":[2147483647,0,0,1,1,2,2,3,3,4,4,5,5,6,6,7,7,8,8,9,9,10,10,11,11,12,12,13,13,14,14],"right_children":[2,4,6,8,10,12,14,16,18,20,22,24,26,28,30,-1,-1,-1,-1,-1,-1,-1,-1,-1,-1,-1,-1,-1,-1,-1,-1],"split_conditions":[1E0,1.1E1,1.71E2,2E0,1.6E1,1.46E2,1.98E2,1.5E1,7E0,4.36E2,3.28E2,9E0,7E0,9E0,1.4E1,1.1263257E-1,3.567327E-2,-5.8241226E-2,6.806269E-3,-3.820684E-2,-1.3501805E-1,-3.1004623E-2,4.5986436E-2,6.967585E-3,-5.2062035E-2,-1.3552767E-1,2.4517266E-2,8.2742487E-4,9.597067E-2,-3.916666E-3,-6.658806E-2],"split_indices":[5,2,6,4,1,6,6,1,1,6,6,2,4,2,2,0,0,0,0,0,0,0,0,0,0,0,0,0,0,0,0],"split_type":[0,0,0,0,0,0,0,0,0,0,0,0,0,0,0,0,0,0,0,0,0,0,0,0,0,0,0,0,0,0,0],"sum_hessian":[4.08E2,2.09E2,1.99E2,1.51E2,5.8E1,3.3E1,1.66E2,3.4E1,1.17E2,1.6E1,4.2E1,2.2E1,1.1E1,1.5E1,1.51E2,1E1,2.4E1,9E0,1.08E2,1.3E1,3E0,2.5E1,1.7E1,1.4E1,8E0,9E0,2E0,6E0,9E0,1.37E2,1.4E1],"tree_param":{"num_deleted":"0","num_feature":"7","num_nodes":"31","size_leaf_vector":"1"}},{"base_weights":[7.013181E-2,-5.338363E-1,9.1095366E-2,-1.0414938E0,-2.2906426E-2,2.4774557E-1,2.7016351E-2,-1.3226359E-1,-2.257592E-1,6.319404E-2,-2.0673317E-1,8.280294E-2,9.4873667E-1,-6.229037E-1,7.578096E-2,-3.4296035E-3,-3.0434275E-2,4.400007E-2,-5.5342685E-2,2.2964234E-2,-3.868527E-2,-3.6681169E-3,1.1697563E-1,-7.278651E-2,6.85681E-2,9.805447E-3,-7.623469E-2],"categories":[],"categories_nodes":[],"categories_segments":[],"categories_sizes":[],"default_left":[0,0,0,0,0,0,0,0,0,0,0,0,0,0,0,0,0,0,0,0,0,0,0,0,0,0,0],"id":49,"left_children":[1,3,5,7,9,11,13,-1,15,-1,17,19,21,23,25,-1,-1,-1,-1,-1,-1,-1,-1,-1,-1,-1,-1],"loss_changes":[5.277755E0,3.6074262E0,4.008503E0,1.3067636E0,1.0936699E0,1.3333748E1,9.079738E0,0E0,3.4699813E-2,0E0,1.8130381E0,6.640413E0,4.8344345E0,3.2460995E0,5.040453E0,0E0,0E0,0E0,0E0,0E0,0E0,0E0,0E0,0E0,0E0,0E0,0E0],"parents":[2147483647,0,0,1,1,2,2,3,3,4,4,5,5,6,6,8,8,10,10,11,11,12,12,13,13,14,14],"right_children":[2,4,6,8,10,12,14,-1,16,-1,18,20,22,24,26,-1,-1,-1,-1,-1,-1,-1,-1,-1,-1,-1,-1],"split_conditions":[1.7E1,4E0,1.67E2,1.1E1,1.1E2,1.4E2,1.88E2,-1.3226359E-1,1.3E1,6.319404E-2,2.4E1,6E0,2E0,4.84E2,4.96E2,-3.4296035E-3,-3.0434275E-2,4.400007E-2,-5.5342685E-2,2.2964234E-2,-3.868527E-2,-3.6681169E-3,1.1697563E-1,-7.278651E-2,6.85681E-2,9.805447E-3,-7.623469E-2],"split_indices":[0,4,0,0,6,0,0,0,0,0,1,4,4,6,6,0,0,0,0,0,0,0,0,0,0,0,0],"split_type":[0,0,0,0,0,0,0,0,0,0,0,0,0,0,0,0,0,0,0,0,0,0,0,0,0,0,0],"sum_hessian":[4.12E2,1.3E1,3.99E2,6E0,7E0,1.15E2,2.84E2,4E0,2E0,1E0,6E0,9.4E1,2.1E1,1.9E1,2.65E2,1E0,1E0,2E0,4E0,7.2E1,2.2E1,4E0,1.7E1,1.8E1,1E0,2.59E2,6E0],"tree_param":{"num_deleted":"0","num_feature":"7","num_nodes":"27","size_leaf_vector":"1"}},{"base_weights":[5.3841054E-2,-2.1468283E-1,1.2017192E-1,1.9246213E-2,-3.7436318E-1,-2.2647327E-2,1.9649684E-1,-3.5508442E-1,3.509153E-1,-5.471438E-1,1.19612604E-1,1.9385992E-1,-4.851032E-1,-2.66822E-1,2.9177418E-1,1.4426834E-2,-7.5949974E-2,-3.9071566E-3,7.452435E-2,-9.150393E-2,4.386125E-4,5.8766283E-2,-3.6552515E-2,5.8541544E-2,-1.4637482E-2,-1.55816395E-2,-8.057335E-2,-1.7238866E-1,-3.081747E-3,7.280193E-2,1.9141069E-2],"categories":[],"categories_nodes":[],"categories_segments":[],"categories_sizes":[],"default_left":[0,0,0,0,0,0,0,0,0,0,0,0,0,0,0,0,0,0,0,0,0,0,0,0,0,0,0,0,0,0,0],"id":50,"left_children":[1,3,5,7,9,11,13,15,17,19,21,23,25,27,29,-1,-1,-1,-1,-1,-1,-1,-1,-1,-1,-1,-1,-1,-1,-1,-1],"loss_changes":[7.096934E0,2.9581606E0,3.4817624E0,4.221683E0,4.0768685E0,1.1308047E1,9.25976E0,3.340706E0,2.7972088E0,7.1057014E0,3.1667004E0,1.0343691E1,3.6753092E0,1.2326332E1,7.4351244E0,0E0,0E0,0E0,0E0,0E0,0E0,0E0,0E0,0E0,0E0,0E0,0E0,0E0,0E0,0E0,0E0],"parents":[2147483647,0,0,1,1,2,2,3,3,4,4,5,5,6,6,7,7,8,8,9,9,10,10,11,11,12,12,13,13,14,14],"right_children":[2,4,6,8,10,12,14,16,18,20,22,24,26,28,30,-1,-1,-1,-1,-1,-1,-1,-1,-1,-1,-1,-1,-1,-1,-1,-1],"split_conditions":[2E0,3.15E2,2.42E2,1.28E2,3.3E1,1.98E2,8.7E1,1.8E1,1E0,4.17E2,4.08E2,2.35E2,2.1E1,1E0,2.84E2,1.4426834E-2,-7.5949974E-2,-3.9071566E-3,7.452435E-2,-9.150393E-2,4.386125E-4,5.8766283E-2,-3.6552515E-2,5.8541544E-2,-1.4637482E-2,-1.55816395E-2,-8.057335E-2,-1.7238866E-1,-3.081747E-3,7.280193E-2,1.9141069E-2],"split_indices":[3,6,6,0,1,6,0,1,3,6,6,0,1,4,6,0,0,0,0,0,0,0,0,0,0,0,0,0,0,0,0],"split_type":[0,0,0,0,0,0,0,0,0,0,0,0,0,0,0,0,0,0,0,0,0,0,0,0,0,0,0,0,0,0,0],"sum_hessian":[3.96E2,7.8E1,3.18E2,3.2E1,4.6E1,1.11E2,2.07E2,1.5E1,1.7E1,3.4E1,1.2E1,7.6E1,3.5E1,3.5E1,1.72E2,7E0,8E0,9E0,8E0,2E1,1.4E1,6E0,6E0,3.5E1,4.1E1,1.8E1,1.7E1,4E0,3.1E1,3.1E1,1.41E2],"tree_param":{"num_deleted":"0","num_feature":"7","num_nodes":"31","size_leaf_vector":"1"}},{"base_weights":[5.2762534E-3,-6.255747E-2,1.5759106E-1,-7.930996E-2,5.232235E-1,4.4217303E-1,-1.7314332E-2,1.1126358E-1,-1.3163763E-1,9.2319065E-1,-4.5111862E-1,2.3927338E-1,7.670462E-1,8.079415E-1,-8.399299E-2,-5.630104E-2,1.9660903E-2,-3.2368682E-2,1.2300066E-3,1.8501155E-2,1.24602735E-1,8.451867E-3,-7.611966E-2,-1.074101E-2,7.2755896E-2,1.02605976E-1,-1.1160116E-2,1.9994615E-1,-2.8768385E-2,-2.0604502E-2,4.0981468E-2],"categories":[],"categories_nodes":[],"categories_segments":[],"categories_sizes":[],"default_left":[0,0,0,0,0,0,0,0,0,0,0,0,0,0,0,0,0,0,0,0,0,0,0,0,0,0,0,0,0,0,0],"id":51,"left_children":[1,3,5,7,9,11,13,15,17,19,21,23,25,27,29,-1,-1,-1,-1,-1,-1,-1,-1,-1,-1,-1,-1,-1,-1,-1,-1],"loss_changes":[4.225347E0,2.8186598E0,6.279297E0,2.7669926E0,3.5341074E0,2.980465E0,4.414991E0,3.563466E0,6.0025377E0,1.1993384E0,5.6260324E-1,5.3258443E0,4.2109785E0,8.407969E0,4.5444374E0,0E0,0E0,0E0,0E0,0E0,0E0,0E0,0E0,0E0,0E0,0E0,0E0,0E0,0E0,0E0,0E0],"parents":[2147483647,0,0,1,1,2,2,3,3,4,4,5,5,6,6,7,7,8,8,9,9,10,10,11,11,12,12,13,13,14,14],"right_children":[2,4,6,8,10,12,14,16,18,20,22,24,26,28,30,-1,-1,-1,-1,-1,-1,-1,-1,-1,-1,-1,-1,-1,-1,-1,-1],"split_conditions":[8E0,3.9E1,6E0,1.1E1,5E0,6E0,1E0,1E0,2.4E1,2E0,6E0,2.8E1,3E1,2.5E1,3.2E1,-5.630104E-2,1.9660903E-2,-3.2368682E-2,1.2300066E-3,1.8501155E-2,1.24602735E-1,8.451867E-3,-7.611966E-2,-1.074101E-2,7.2755896E-2,1.02605976E-1,-1.1160116E-2,1.9994615E-1,-2.8768385E-2,-2.0604502E-2,4.0981468E-2],"split_indices":[3,1,2,1,3,4,4,2,1,2,2,1,1,1,1,0,0,0,0,0,0,0,0,0,0,0,0,0,0,0,0],"split_type":[0,0,0,0,0,0,0,0,0,0,0,0,0,0,0,0,0,0,0,0,0,0,0,0,0,0,0,0,0,0,0],"sum_hessian":[4.07E2,2.82E2,1.25E2,2.75E2,7E0,4.7E1,7.8E1,5.9E1,2.16E2,5E0,2E0,3E1,1.7E1,5E0,7.3E1,6E0,5.3E1,9.2E1,1.24E2,2E0,3E0,1E0,1E0,1.8E1,1.2E1,1.3E1,4E0,2E0,3E0,5.9E1,1.4E1],"tree_param":{"num_deleted":"0","num_feature":"7","num_nodes":"31","size_leaf_vector":"1"}},{"base_weights":[3.593537E-2,1.9217247E-1,-7.059174E-2,4.6208717E-2,6.146963E-1,-5.085815E-2,-9.681654E-1,3.7726793E-1,-1.5042119E-1,-2.732151E-2,9.8614204E-1,2.2330171E-1,-9.4469436E-2,-1.1587239E-2,-1.1522706E-1,9.723228E-2,-1.8741239E-3,-2.8292684E-2,8.67446E-2,1.5564904E-2,-4.6098653E-2,1.9298445E-1,3.730147E-2,-5.8961947E-2,5.188429E-2,-1.1478754E-2,1.2780146E-1],"categories":[],"categories_nodes":[],"categories_segments":[],"categories_sizes":[],"default_left":[0,0,0,0,0,0,0,0,0,0,0,0,0,0,0,0,0,0,0,0,0,0,0,0,0,0,0],"id":52,"left_children":[1,3,5,7,9,11,13,15,17,19,21,23,25,-1,-1,-1,-1,-1,-1,-1,-1,-1,-1,-1,-1,-1,-1],"loss_changes":[6.5710993E0,9.839302E0,4.1131635E0,7.868286E0,9.80441E0,2.7830384E0,6.5104103E-1,1.0622345E1,1.0495782E1,1.3413188E0,1.4323992E1,7.9939733E0,5.723952E0,0E0,0E0,0E0,0E0,0E0,0E0,0E0,0E0,0E0,0E0,0E0,0E0,0E0,0E0],"parents":[2147483647,0,0,1,1,2,2,3,3,4,4,5,5,6,6,7,7,8,8,9,9,10,10,11,11,12,12],"right_children":[2,4,6,8,10,12,14,16,18,20,22,24,26,-1,-1,-1,-1,-1,-1,-1,-1,-1,-1,-1,-1,-1,-1],"split_conditions":[6E0,4E0,4.82E2,1.71E2,4E0,9E0,1.2E1,2E0,4.84E2,4.37E2,7E0,2E0,4.74E2,-1.1587239E-2,-1.1522706E-1,9.723228E-2,-1.8741239E-3,-2.8292684E-2,8.67446E-2,1.5564904E-2,-4.6098653E-2,1.9298445E-1,3.730147E-2,-5.8961947E-2,5.188429E-2,-1.1478754E-2,1.2780146E-1],"split_indices":[2,2,0,0,3,1,1,2,0,0,3,3,0,0,0,0,0,0,0,0,0,0,0,0,0,0,0],"split_type":[0,0,0,0,0,0,0,0,0,0,0,0,0,0,0,0,0,0,0,0,0,0,0,0,0,0,0],"sum_hessian":[3.93E2,1.59E2,2.34E2,1.19E2,4E1,2.3E2,4E0,4.4E1,7.5E1,1.5E1,2.5E1,3.1E1,1.99E2,1E0,3E0,1.7E1,2.7E1,6.7E1,8E0,1.1E1,4E0,9E0,1.6E1,8E0,2.3E1,1.97E2,2E0],"tree_param":{"num_deleted":"0","num_feature":"7","num_nodes":"27","size_leaf_vector":"1"}},{"base_weights":[-4.4266038E-2,-8.405713E-2,3.1017068E-1,1.4726102E-1,-1.2711653E-1,2.0475264E-1,2.1785648E-1,1.0925739E0,5.8646023E-2,-1.15112685E-1,-1.337146E-1,1.0119352E0,2.4606872E-2,-1.38893295E-2,1.435164E-1,-6.951336E-2,1.6513197E-2,-4.0862854E-3,-3.137962E-2,-2.7480198E-2,1.838938E-1,-1.7435584E-2,2.8825004E-2],"categories":[],"categories_nodes":[],"categories_segments":[],"categories_sizes":[],"default_left":[0,0,0,0,0,0,0,0,0,0,0,0,0,0,0,0,0,0,0,0,0,0,0],"id":53,"left_children":[1,3,5,7,9,-1,11,13,15,17,-1,19,21,-1,-1,-1,-1,-1,-1,-1,-1,-1,-1],"loss_changes":[5.864889E0,3.733957E0,6.290002E0,4.8782907E0,4.421456E0,0E0,6.2667713E0,2.3087769E0,4.52947E0,4.604623E0,0E0,9.018426E0,1.8337334E0,0E0,0E0,0E0,0E0,0E0,0E0,0E0,0E0,0E0,